{"learner":{"attributes":{"best_iteration":"499","best_score":"0.9605900681408105","scikit_learn":"{\"_estimator_type\": \"regressor\"}"},"feature_names":["DAY_OF_WEEK","DAY_OF_MONTH","MONTH","QUARTER","IS_MONTH_END","IS_MONTH_START","IS_WEEKEND","MONTH_SIN","MONTH_COS","DOW_SIN","DOW_COS","MONTANT_LAG_1","MONTANT_LAG_3","MONTANT_LAG_7","MONTANT_LAG_14","MONTANT_LAG_30","SENS_LAG_1","SENS_LAG_3","SENS_LAG_7","SENS_LAG_14","SENS_LAG_30","MONTANT_ROLL_MEAN_7","MONTANT_ROLL_STD_7","MONTANT_ROLL_MAX_7","MONTANT_ROLL_MIN_7","MONTANT_ROLL_MEAN_14","MONTANT_ROLL_STD_14","MONTANT_ROLL_MEAN_30","MONTANT_ROLL_STD_30","SOLDE_COURANT","SOLDE_INITIAL","CODE_AGENCE","DEV","CODE_OPERATION","NB_TOTAL_OPS","MONTANT_MOYEN_AGE","PROP_C_AGE","LOG_NB_OPERATION"],"feature_types":["int","int","int","int","int","int","int","float","float","float","float","float","float","float","float","float","float","float","float","float","float","float","float","float","float","float","float","float","float","float","float","int","int","int","int","float","float","float"],"gradient_booster":{"model":{"cats":{"enc":[],"feature_segments":[],"sorted_idx":[]},"gbtree_model_param":{"num_parallel_tree":"1","num_trees":"500"},"iteration_indptr":[0,1,2,3,4,5,6,7,8,9,10,11,12,13,14,15,16,17,18,19,20,21,22,23,24,25,26,27,28,29,30,31,32,33,34,35,36,37,38,39,40,41,42,43,44,45,46,47,48,49,50,51,52,53,54,55,56,57,58,59,60,61,62,63,64,65,66,67,68,69,70,71,72,73,74,75,76,77,78,79,80,81,82,83,84,85,86,87,88,89,90,91,92,93,94,95,96,97,98,99,100,101,102,103,104,105,106,107,108,109,110,111,112,113,114,115,116,117,118,119,120,121,122,123,124,125,126,127,128,129,130,131,132,133,134,135,136,137,138,139,140,141,142,143,144,145,146,147,148,149,150,151,152,153,154,155,156,157,158,159,160,161,162,163,164,165,166,167,168,169,170,171,172,173,174,175,176,177,178,179,180,181,182,183,184,185,186,187,188,189,190,191,192,193,194,195,196,197,198,199,200,201,202,203,204,205,206,207,208,209,210,211,212,213,214,215,216,217,218,219,220,221,222,223,224,225,226,227,228,229,230,231,232,233,234,235,236,237,238,239,240,241,242,243,244,245,246,247,248,249,250,251,252,253,254,255,256,257,258,259,260,261,262,263,264,265,266,267,268,269,270,271,272,273,274,275,276,277,278,279,280,281,282,283,284,285,286,287,288,289,290,291,292,293,294,295,296,297,298,299,300,301,302,303,304,305,306,307,308,309,310,311,312,313,314,315,316,317,318,319,320,321,322,323,324,325,326,327,328,329,330,331,332,333,334,335,336,337,338,339,340,341,342,343,344,345,346,347,348,349,350,351,352,353,354,355,356,357,358,359,360,361,362,363,364,365,366,367,368,369,370,371,372,373,374,375,376,377,378,379,380,381,382,383,384,385,386,387,388,389,390,391,392,393,394,395,396,397,398,399,400,401,402,403,404,405,406,407,408,409,410,411,412,413,414,415,416,417,418,419,420,421,422,423,424,425,426,427,428,429,430,431,432,433,434,435,436,437,438,439,440,441,442,443,444,445,446,447,448,449,450,451,452,453,454,455,456,457,458,459,460,461,462,463,464,465,466,467,468,469,470,471,472,473,474,475,476,477,478,479,480,481,482,483,484,485,486,487,488,489,490,491,492,493,494,495,496,497,498,499,500],"tree_info":[0,0,0,0,0,0,0,0,0,0,0,0,0,0,0,0,0,0,0,0,0,0,0,0,0,0,0,0,0,0,0,0,0,0,0,0,0,0,0,0,0,0,0,0,0,0,0,0,0,0,0,0,0,0,0,0,0,0,0,0,0,0,0,0,0,0,0,0,0,0,0,0,0,0,0,0,0,0,0,0,0,0,0,0,0,0,0,0,0,0,0,0,0,0,0,0,0,0,0,0,0,0,0,0,0,0,0,0,0,0,0,0,0,0,0,0,0,0,0,0,0,0,0,0,0,0,0,0,0,0,0,0,0,0,0,0,0,0,0,0,0,0,0,0,0,0,0,0,0,0,0,0,0,0,0,0,0,0,0,0,0,0,0,0,0,0,0,0,0,0,0,0,0,0,0,0,0,0,0,0,0,0,0,0,0,0,0,0,0,0,0,0,0,0,0,0,0,0,0,0,0,0,0,0,0,0,0,0,0,0,0,0,0,0,0,0,0,0,0,0,0,0,0,0,0,0,0,0,0,0,0,0,0,0,0,0,0,0,0,0,0,0,0,0,0,0,0,0,0,0,0,0,0,0,0,0,0,0,0,0,0,0,0,0,0,0,0,0,0,0,0,0,0,0,0,0,0,0,0,0,0,0,0,0,0,0,0,0,0,0,0,0,0,0,0,0,0,0,0,0,0,0,0,0,0,0,0,0,0,0,0,0,0,0,0,0,0,0,0,0,0,0,0,0,0,0,0,0,0,0,0,0,0,0,0,0,0,0,0,0,0,0,0,0,0,0,0,0,0,0,0,0,0,0,0,0,0,0,0,0,0,0,0,0,0,0,0,0,0,0,0,0,0,0,0,0,0,0,0,0,0,0,0,0,0,0,0,0,0,0,0,0,0,0,0,0,0,0,0,0,0,0,0,0,0,0,0,0,0,0,0,0,0,0,0,0,0,0,0,0,0,0,0,0,0,0,0,0,0,0,0,0,0,0,0,0,0,0,0,0,0,0,0,0,0,0,0,0,0,0,0,0,0,0,0,0,0,0,0,0,0,0,0,0,0,0,0,0,0,0,0,0,0,0,0,0,0,0,0,0,0,0,0,0,0,0,0,0,0,0,0,0,0,0,0,0,0,0,0,0],"trees":[{"base_weights":[1.1005092E-3,-7.006526E-1,2.2971816E0,6.586357E-1,-1.3025665E0,1.6445647E0,2.5721502E0,-2.711786E0,1.6716563E0,-2.9511456E0,-5.311202E-1,2.0403268E0,1.2863044E0,2.8273246E0,2.337356E0,-2.9809551E0,2.590198E0,1.3278581E0,2.2361891E0,-3.6418104E0,-1.2668476E0,-2.2125281E-1,-2.1109698E0,1.7885281E0,2.1872334E0,-1.8290246E0,1.3378398E0,2.6267502E0,3.151986E0,2.1013181E0,2.6927934E0,-3.4561427E0,-1.9861778E0,2.1860514E0,3.1020317E0,1.3462106E0,-1.4282435E0,2.3257163E0,9.4163907E-1,-1.5178115E0,-3.942775E0,-2.9814708E0,-6.573911E-1,-3.891973E-1,2.5552695E0,-2.7448268E0,-1.509649E0,1.6189926E0,2.3174992E0,2.1669397E0,3.401928E0,-1.403813E-1,-1.466051E0,1.4863244E0,3.8573632E-1,2.5046678E0,2.7581513E0,3.0318778E0,3.3954294E0,1.9237715E0,2.2092052E0,2.5703082E0,2.9948578E0,-1.924424E-1,-1.5068637E-1,-1.1030258E-1,-4.368296E-2,4.8361786E-2,1.1134446E-1,1.4436737E-1,1.7618343E-1,8.138639E-2,5.9750497E-2,-2.9126419E-2,-1.5023571E-1,1.0624211E-1,1.2950633E-1,-5.5179577E-2,5.3778768E-2,-8.2984425E-2,-3.6097843E-2,-2.7267572E-1,-1.4641477E-1,-8.083925E-3,-1.5501924E-1,-5.3056058E-2,4.6527623E-3,2.363824E-3,-7.661793E-2,1.24151886E-1,1.3522427E-1,-1.3621485E-1,-1.8171532E-1,-9.202343E-2,-4.9233604E-2,5.7633918E-2,8.3979785E-2,1.0868408E-1,1.6035992E-1,1.0548695E-1,1.17438756E-1,1.4739046E-1,1.8584743E-1,-4.3302026E-2,-8.134719E-2,5.740561E-2,8.186933E-2,1.0641693E-1,1.0964827E-2,1.2217634E-1,1.3468249E-1,1.3488722E-1,1.4797245E-1,1.487362E-1,1.6184334E-1,1.656069E-1,1.7933275E-1,9.1988884E-2,1.0003004E-1,1.003777E-1,1.12211995E-1,1.2411555E-1,1.3362317E-1,1.4456621E-1,1.6388172E-1],"categories":[],"categories_nodes":[],"categories_segments":[],"categories_sizes":[],"default_left":[0,0,0,0,0,0,0,0,0,0,0,0,0,0,0,0,0,0,0,0,0,0,0,0,0,0,0,0,0,0,0,0,0,0,0,0,0,0,0,0,0,0,0,0,0,0,0,0,0,0,0,0,0,0,0,0,0,0,0,0,0,0,0,0,0,0,0,0,0,0,0,0,0,0,0,0,0,0,0,0,0,0,0,0,0,0,0,0,0,0,0,0,0,0,0,0,0,0,0,0,0,0,0,0,0,0,0,0,0,0,0,0,0,0,0,0,0,0,0,0,0,0,0,0,0],"id":0,"left_children":[1,3,5,7,9,11,13,15,17,19,21,23,25,27,29,31,33,35,37,39,41,43,45,47,49,51,53,55,57,59,61,63,65,67,69,71,73,75,77,79,81,83,85,87,89,91,93,95,97,99,101,-1,103,105,107,109,111,113,115,117,119,121,123,-1,-1,-1,-1,-1,-1,-1,-1,-1,-1,-1,-1,-1,-1,-1,-1,-1,-1,-1,-1,-1,-1,-1,-1,-1,-1,-1,-1,-1,-1,-1,-1,-1,-1,-1,-1,-1,-1,-1,-1,-1,-1,-1,-1,-1,-1,-1,-1,-1,-1,-1,-1,-1,-1,-1,-1,-1,-1,-1,-1,-1,-1],"loss_changes":[8.143115E5,3.1669834E5,2.122475E4,4.0562062E5,3.41194E5,4.96975E3,4.9795625E3,3.918964E4,1.772539E4,9.948019E4,8.946832E4,6.1203125E2,2.958289E3,2.5880938E3,3.6310156E3,1.2343922E4,2.6718848E2,2.8736328E3,4.0042969E3,3.8763812E4,2.5988629E4,7.124839E4,1.1417797E4,5.469336E2,2.5134766E2,1.0201849E2,2.5597773E3,3.8810938E2,4.341875E2,4.9446094E2,6.317031E2,3.0596094E3,2.064504E3,3.460791E1,4.195752E1,2.3984297E3,4.991911E2,1.7114531E3,6.142411E2,8.4868945E2,8.139869E4,2.186082E3,5.5601406E3,7.188987E4,8.6703125E1,2.5585156E2,2.6691602E3,1.293877E2,1.8301465E2,1.0223047E2,1.2839233E1,0E0,1.9676483E1,7.9833594E2,7.084423E2,1.4072656E2,1.3573438E2,1.09296875E2,6.740234E1,5.954297E1,1.0952344E2,1.03546875E2,1.3582422E2,0E0,0E0,0E0,0E0,0E0,0E0,0E0,0E0,0E0,0E0,0E0,0E0,0E0,0E0,0E0,0E0,0E0,0E0,0E0,0E0,0E0,0E0,0E0,0E0,0E0,0E0,0E0,0E0,0E0,0E0,0E0,0E0,0E0,0E0,0E0,0E0,0E0,0E0,0E0,0E0,0E0,0E0,0E0,0E0,0E0,0E0,0E0,0E0,0E0,0E0,0E0,0E0,0E0,0E0,0E0,0E0,0E0,0E0,0E0,0E0,0E0,0E0],"parents":[2147483647,0,0,1,1,2,2,3,3,4,4,5,5,6,6,7,7,8,8,9,9,10,10,11,11,12,12,13,13,14,14,15,15,16,16,17,17,18,18,19,19,20,20,21,21,22,22,23,23,24,24,25,25,26,26,27,27,28,28,29,29,30,30,31,31,32,32,33,33,34,34,35,35,36,36,37,37,38,38,39,39,40,40,41,41,42,42,43,43,44,44,45,45,46,46,47,47,48,48,49,49,50,50,52,52,53,53,54,54,55,55,56,56,57,57,58,58,59,59,60,60,61,61,62,62],"right_children":[2,4,6,8,10,12,14,16,18,20,22,24,26,28,30,32,34,36,38,40,42,44,46,48,50,52,54,56,58,60,62,64,66,68,70,72,74,76,78,80,82,84,86,88,90,92,94,96,98,100,102,-1,104,106,108,110,112,114,116,118,120,122,124,-1,-1,-1,-1,-1,-1,-1,-1,-1,-1,-1,-1,-1,-1,-1,-1,-1,-1,-1,-1,-1,-1,-1,-1,-1,-1,-1,-1,-1,-1,-1,-1,-1,-1,-1,-1,-1,-1,-1,-1,-1,-1,-1,-1,-1,-1,-1,-1,-1,-1,-1,-1,-1,-1,-1,-1,-1,-1,-1,-1,-1,-1],"split_conditions":[2.6390574E0,1.03E2,3.6109178E0,1E2,1.73E2,1.03E2,1.03E2,7E2,1.3862944E0,1.3862944E0,4.57E2,3.2580965E0,1.11E2,4.0943446E0,4.276666E0,1.0986123E0,1.3862944E0,1.02E2,1.02E2,1.04E2,1.11E2,4.56E2,1.0986123E0,6.340766E-1,6.8899846E-1,1.8E1,3.01E2,3.871201E0,4.356709E0,3.871201E0,4.762174E0,7.1E1,1.609438E0,1.0986123E0,1.7917595E0,6.8E1,6.50168E-1,1.609438E0,1.825E3,1.0986123E0,1.22E2,1.04E2,1.9459101E0,3.06E2,1.17099414E5,2.504E3,1.609438E0,2.859E3,2.31E2,1.1973877E5,7.8E1,-1.403813E-1,6.6E1,3.0910425E0,-0E0,1.5920008E5,2.0501734E5,2.5119008E5,4.553877E0,4.304E3,3.811E3,4.4886365E0,5.187386E0,-1.924424E-1,-1.5068637E-1,-1.1030258E-1,-4.368296E-2,4.8361786E-2,1.1134446E-1,1.4436737E-1,1.7618343E-1,8.138639E-2,5.9750497E-2,-2.9126419E-2,-1.5023571E-1,1.0624211E-1,1.2950633E-1,-5.5179577E-2,5.3778768E-2,-8.2984425E-2,-3.6097843E-2,-2.7267572E-1,-1.4641477E-1,-8.083925E-3,-1.5501924E-1,-5.3056058E-2,4.6527623E-3,2.363824E-3,-7.661793E-2,1.24151886E-1,1.3522427E-1,-1.3621485E-1,-1.8171532E-1,-9.202343E-2,-4.9233604E-2,5.7633918E-2,8.3979785E-2,1.0868408E-1,1.6035992E-1,1.0548695E-1,1.17438756E-1,1.4739046E-1,1.8584743E-1,-4.3302026E-2,-8.134719E-2,5.740561E-2,8.186933E-2,1.0641693E-1,1.0964827E-2,1.2217634E-1,1.3468249E-1,1.3488722E-1,1.4797245E-1,1.487362E-1,1.6184334E-1,1.656069E-1,1.7933275E-1,9.1988884E-2,1.0003004E-1,1.003777E-1,1.12211995E-1,1.2411555E-1,1.3362317E-1,1.4456621E-1,1.6388172E-1],"split_indices":[37,33,37,33,33,33,33,31,37,37,33,37,33,37,37,37,37,33,33,33,33,33,37,36,36,31,33,37,37,37,37,33,37,37,37,31,36,37,34,37,33,33,37,33,29,30,37,34,31,29,31,0,31,37,30,29,29,29,37,34,34,37,37,0,0,0,0,0,0,0,0,0,0,0,0,0,0,0,0,0,0,0,0,0,0,0,0,0,0,0,0,0,0,0,0,0,0,0,0,0,0,0,0,0,0,0,0,0,0,0,0,0,0,0,0,0,0,0,0,0,0,0,0,0,0],"split_type":[0,0,0,0,0,0,0,0,0,0,0,0,0,0,0,0,0,0,0,0,0,0,0,0,0,0,0,0,0,0,0,0,0,0,0,0,0,0,0,0,0,0,0,0,0,0,0,0,0,0,0,0,0,0,0,0,0,0,0,0,0,0,0,0,0,0,0,0,0,0,0,0,0,0,0,0,0,0,0,0,0,0,0,0,0,0,0,0,0,0,0,0,0,0,0,0,0,0,0,0,0,0,0,0,0,0,0,0,0,0,0,0,0,0,0,0,0,0,0,0,0,0,0,0,0],"sum_hessian":[5.05379E5,3.87077E5,1.18302E5,1.18798E5,2.68279E5,3.5071E4,8.3231E4,2.7454E4,9.1344E4,8.552E4,1.82759E5,1.6661E4,1.841E4,3.9879E4,4.3352E4,2.6128E4,1.326E3,5.6773E4,3.4571E4,6.0649E4,2.4871E4,1.52792E5,2.9967E4,6.144E3,1.0517E4,2.99E2,1.8111E4,2.4656E4,1.5223E4,2.6056E4,1.7296E4,1.768E4,8.448E3,7.44E2,5.82E2,5.6398E4,3.75E2,3.2334E4,2.237E3,7.528E3,5.3121E4,6.521E3,1.835E4,1.44078E5,8.714E3,1.4587E4,1.538E4,4.656E3,1.488E3,1.0347E4,1.7E2,7.9E1,2.2E2,1.5667E4,2.444E3,1.2792E4,1.1864E4,1.0203E4,5.02E3,9.856E3,1.62E4,1.2313E4,4.983E3,9.362E3,8.318E3,7.053E3,1.395E3,2.5E1,7.19E2,3.91E2,1.91E2,1.9703E4,3.6695E4,2.45E2,1.3E2,1.838E4,1.3954E4,1.37E2,2.1E3,6.388E3,1.14E3,2.1339E4,3.1782E4,2.64E2,6.257E3,1.1931E4,6.419E3,1.04268E5,3.981E4,5.884E3,2.83E3,1.4262E4,3.25E2,9.433E3,5.947E3,5.38E2,4.118E3,1.284E3,2.04E2,7.881E3,2.466E3,7.4E1,9.6E1,4.8E1,1.72E2,4.84E3,1.0827E4,2.12E2,2.232E3,9.676E3,3.116E3,9.137E3,2.727E3,7.991E3,2.212E3,3.51E3,1.51E3,4.721E3,5.135E3,2.407E3,1.3793E4,6.629E3,5.684E3,3.656E3,1.327E3],"tree_param":{"num_deleted":"0","num_feature":"38","num_nodes":"125","size_leaf_vector":"1"}},{"base_weights":[2.5915826E-4,-6.6108626E-1,2.203713E0,6.23763E-1,-1.2313777E0,1.6935846E0,2.48465E0,-2.5812082E0,1.5875297E0,-2.7738256E0,-4.9233812E-1,2.025932E0,1.3571876E0,2.7348077E0,2.2627637E0,2.4498959E0,-2.8378944E0,1.2638798E0,2.1165578E0,-3.782693E0,-1.7288535E0,-1.9477282E-1,-2.001187E0,1.7235581E0,2.278996E0,8.530952E-1,1.5678709E0,2.5097804E0,2.9804702E0,2.0623188E0,2.60599E0,2.065494E0,2.9360023E0,-3.2917595E0,-1.8778014E0,9.87044E-1,1.5684102E0,2.2079332E0,9.572533E-1,-1.5808979E0,-4.1502314E0,-3.1890266E0,-1.0063825E0,-3.5278195E-1,2.4274485E0,-2.613354E0,-1.4242331E0,1.4556482E0,1.9022206E0,2.2178872E0,2.7970188E0,-1.6829649E0,9.3559486E-1,1.6075045E0,7.1494955E-1,2.3933198E0,2.6949646E0,2.818174E0,3.2484286E0,1.914985E0,2.2458835E0,2.490522E0,2.8759806E0,3.44796E-2,1.0607081E-1,1.3663614E-1,1.6702616E-1,-1.8299428E-1,-1.4375758E-1,-1.04419045E-1,-3.9830692E-2,5.0390072E-2,-1.1588452E-1,6.9114886E-2,8.5835256E-2,9.976144E-2,1.24816254E-1,-7.632175E-2,5.3432163E-2,-8.269184E-2,-5.0355405E-2,-2.8504446E-1,-1.5742962E-1,-2.9296467E-2,-1.735999E-1,-7.2732225E-2,-2.7221455E-3,3.4487233E-3,-7.2529525E-2,1.178683E-1,1.2840505E-1,-1.2964855E-1,-1.7370948E-1,-8.695674E-2,-4.6263512E-2,6.342143E-2,7.9933085E-2,8.801281E-2,1.0129229E-1,1.04356065E-1,1.1444246E-1,1.2615365E-1,1.5429422E-1,-3.980282E-2,-9.0518504E-2,5.7634234E-2,1.4806031E-2,7.5330555E-2,9.169107E-2,4.2773772E-2,-9.39456E-3,1.1236944E-1,1.236048E-1,1.4212963E-1,1.301832E-1,1.3449918E-1,1.5133314E-1,1.5437028E-1,1.698056E-1,9.0984404E-2,1.0224401E-1,8.3589666E-2,1.1311754E-1,1.2043784E-1,1.389788E-1,1.3925317E-1,1.5656655E-1],"categories":[],"categories_nodes":[],"categories_segments":[],"categories_sizes":[],"default_left":[0,0,0,0,0,0,0,0,0,0,0,0,0,0,0,0,0,0,0,0,0,0,0,0,0,0,0,0,0,0,0,0,0,0,0,0,0,0,0,0,0,0,0,0,0,0,0,0,0,0,0,0,0,0,0,0,0,0,0,0,0,0,0,0,0,0,0,0,0,0,0,0,0,0,0,0,0,0,0,0,0,0,0,0,0,0,0,0,0,0,0,0,0,0,0,0,0,0,0,0,0,0,0,0,0,0,0,0,0,0,0,0,0,0,0,0,0,0,0,0,0,0,0,0,0,0,0],"id":1,"left_children":[1,3,5,7,9,11,13,15,17,19,21,23,25,27,29,31,33,35,37,39,41,43,45,47,49,51,53,55,57,59,61,63,65,67,69,71,73,75,77,79,81,83,85,87,89,91,93,95,97,99,101,103,105,107,109,111,113,115,117,119,121,123,125,-1,-1,-1,-1,-1,-1,-1,-1,-1,-1,-1,-1,-1,-1,-1,-1,-1,-1,-1,-1,-1,-1,-1,-1,-1,-1,-1,-1,-1,-1,-1,-1,-1,-1,-1,-1,-1,-1,-1,-1,-1,-1,-1,-1,-1,-1,-1,-1,-1,-1,-1,-1,-1,-1,-1,-1,-1,-1,-1,-1,-1,-1,-1,-1],"loss_changes":[7.377868E5,2.853373E5,1.6745562E4,3.697695E5,3.074397E5,4.637867E3,4.1767188E3,3.5748234E4,1.5755219E4,9.209544E4,8.186616E4,1.5933359E3,2.1897266E3,1.9501562E3,2.7424219E3,2.4457568E2,1.1467969E4,4.8123438E3,3.6979688E3,3.5962875E4,4.526986E4,6.3105508E4,1.0604359E4,4.524297E2,3.530039E2,1.274419E3,4.9046875E2,3.918828E2,7.2646875E2,6.7747656E2,4.513203E2,5.627124E1,3.8862305E1,2.7308125E3,1.9230469E3,2.0543105E3,7.4775E2,1.9807812E3,7.081697E2,2.6424316E2,5.9142562E4,1.0460984E4,1.2251705E4,6.651085E4,7.877734E1,2.460625E2,2.4280508E3,9.975195E1,9.6197266E1,8.914844E1,8.621777E1,1.9993591E1,8.176001E2,3.1436328E2,8.244086E1,1.2459766E2,8.818359E1,2.7327344E2,1.4055469E2,1.6919531E2,1.0194141E2,2.3671484E2,9.292969E1,0E0,0E0,0E0,0E0,0E0,0E0,0E0,0E0,0E0,0E0,0E0,0E0,0E0,0E0,0E0,0E0,0E0,0E0,0E0,0E0,0E0,0E0,0E0,0E0,0E0,0E0,0E0,0E0,0E0,0E0,0E0,0E0,0E0,0E0,0E0,0E0,0E0,0E0,0E0,0E0,0E0,0E0,0E0,0E0,0E0,0E0,0E0,0E0,0E0,0E0,0E0,0E0,0E0,0E0,0E0,0E0,0E0,0E0,0E0,0E0,0E0,0E0,0E0,0E0],"parents":[2147483647,0,0,1,1,2,2,3,3,4,4,5,5,6,6,7,7,8,8,9,9,10,10,11,11,12,12,13,13,14,14,15,15,16,16,17,17,18,18,19,19,20,20,21,21,22,22,23,23,24,24,25,25,26,26,27,27,28,28,29,29,30,30,31,31,32,32,33,33,34,34,35,35,36,36,37,37,38,38,39,39,40,40,41,41,42,42,43,43,44,44,45,45,46,46,47,47,48,48,49,49,50,50,51,51,52,52,53,53,54,54,55,55,56,56,57,57,58,58,59,59,60,60,61,61,62,62],"right_children":[2,4,6,8,10,12,14,16,18,20,22,24,26,28,30,32,34,36,38,40,42,44,46,48,50,52,54,56,58,60,62,64,66,68,70,72,74,76,78,80,82,84,86,88,90,92,94,96,98,100,102,104,106,108,110,112,114,116,118,120,122,124,126,-1,-1,-1,-1,-1,-1,-1,-1,-1,-1,-1,-1,-1,-1,-1,-1,-1,-1,-1,-1,-1,-1,-1,-1,-1,-1,-1,-1,-1,-1,-1,-1,-1,-1,-1,-1,-1,-1,-1,-1,-1,-1,-1,-1,-1,-1,-1,-1,-1,-1,-1,-1,-1,-1,-1,-1,-1,-1,-1,-1,-1,-1,-1,-1],"split_conditions":[2.7080503E0,1.03E2,3.713572E0,1E2,1.74E2,1.03E2,1.03E2,3.1E1,1.3862944E0,1.0986123E0,4.57E2,4.5777645E4,3.1354942E0,6.525229E4,4.356709E0,1.3862944E0,1.0986123E0,5.8027133E4,1.02E2,1.04E2,1.11E2,4.56E2,1.0986123E0,3.295837E0,8.480736E4,1.11E2,3.01E2,4.0430512E0,4.2195077E0,6.08738E4,8.487523E4,1.0986123E0,1.7917595E0,7.1E1,1.609438E0,1.02E2,1.0986123E0,6.3724266E4,2.3140002E4,6.4805746E-1,1.22E2,1.04E2,1.7917595E0,3.06E2,1.17099414E5,2.504E3,1.609438E0,5.6533664E-1,3.6202918E4,3.4011974E0,6.1593866E-1,5.4714835E-1,3.01E2,5.6672586E4,4.56E2,4.7524734E4,1E0,8.480736E4,8.480736E4,4.0253515E0,-0E0,4.8520303E0,4.9767337E0,3.44796E-2,1.0607081E-1,1.3663614E-1,1.6702616E-1,-1.8299428E-1,-1.4375758E-1,-1.04419045E-1,-3.9830692E-2,5.0390072E-2,-1.1588452E-1,6.9114886E-2,8.5835256E-2,9.976144E-2,1.24816254E-1,-7.632175E-2,5.3432163E-2,-8.269184E-2,-5.0355405E-2,-2.8504446E-1,-1.5742962E-1,-2.9296467E-2,-1.735999E-1,-7.2732225E-2,-2.7221455E-3,3.4487233E-3,-7.2529525E-2,1.178683E-1,1.2840505E-1,-1.2964855E-1,-1.7370948E-1,-8.695674E-2,-4.6263512E-2,6.342143E-2,7.9933085E-2,8.801281E-2,1.0129229E-1,1.04356065E-1,1.1444246E-1,1.2615365E-1,1.5429422E-1,-3.980282E-2,-9.0518504E-2,5.7634234E-2,1.4806031E-2,7.5330555E-2,9.169107E-2,4.2773772E-2,-9.39456E-3,1.1236944E-1,1.236048E-1,1.4212963E-1,1.301832E-1,1.3449918E-1,1.5133314E-1,1.5437028E-1,1.698056E-1,9.0984404E-2,1.0224401E-1,8.3589666E-2,1.1311754E-1,1.2043784E-1,1.389788E-1,1.3925317E-1,1.5656655E-1],"split_indices":[37,33,37,33,33,33,33,33,37,37,33,35,37,35,37,37,37,35,33,33,33,33,37,37,35,33,33,37,37,35,35,37,37,33,37,33,37,35,35,36,33,33,37,33,29,30,37,36,35,37,36,36,33,35,33,35,0,35,35,37,30,37,37,0,0,0,0,0,0,0,0,0,0,0,0,0,0,0,0,0,0,0,0,0,0,0,0,0,0,0,0,0,0,0,0,0,0,0,0,0,0,0,0,0,0,0,0,0,0,0,0,0,0,0,0,0,0,0,0,0,0,0,0,0,0,0,0],"split_type":[0,0,0,0,0,0,0,0,0,0,0,0,0,0,0,0,0,0,0,0,0,0,0,0,0,0,0,0,0,0,0,0,0,0,0,0,0,0,0,0,0,0,0,0,0,0,0,0,0,0,0,0,0,0,0,0,0,0,0,0,0,0,0,0,0,0,0,0,0,0,0,0,0,0,0,0,0,0,0,0,0,0,0,0,0,0,0,0,0,0,0,0,0,0,0,0,0,0,0,0,0,0,0,0,0,0,0,0,0,0,0,0,0,0,0,0,0,0,0,0,0,0,0,0,0,0,0],"sum_hessian":[5.06287E5,3.8941E5,1.16877E5,1.19709E5,2.69701E5,4.151E4,7.5367E4,2.7675E4,9.2034E4,8.7363E4,1.82338E5,2.0878E4,2.0632E4,3.5421E4,3.9946E4,1.343E3,2.6332E4,5.7103E4,3.4931E4,4.4448E4,4.2915E4,1.52303E5,3.0035E4,9.516E3,1.1362E4,6.083E3,1.4549E4,1.8493E4,1.6928E4,2.5223E4,1.4723E4,7.53E2,5.9E2,1.7878E4,8.454E3,2.9914E4,2.7189E4,3.2378E4,2.553E3,6.359E3,3.8089E4,1.4204E4,2.8711E4,1.43648E5,8.655E3,1.4571E4,1.5464E4,3.811E3,5.705E3,1.0168E4,1.194E3,1.91E2,5.892E3,1.3902E4,6.47E2,1.1362E4,7.131E3,1.055E4,6.378E3,1.3999E4,1.1224E4,1.032E4,4.403E3,3E1,7.23E2,3.98E2,1.92E2,9.487E3,8.391E3,7.075E3,1.379E3,2.9728E4,1.86E2,1.2062E4,1.5127E4,1.8639E4,1.3739E4,1.09E2,2.444E3,5.64E3,7.19E2,1.4946E4,2.3143E4,1.393E3,1.2811E4,1.9519E4,9.192E3,1.03779E5,3.9869E4,5.789E3,2.866E3,1.4238E4,3.33E2,9.479E3,5.985E3,1.655E3,2.156E3,2.663E3,3.042E3,3.588E3,6.58E3,6.18E2,5.76E2,2.5E1,1.66E2,4.398E3,1.494E3,9.621E3,4.281E3,5.6E2,8.7E1,3.994E3,7.368E3,2.713E3,4.418E3,6.542E3,4.008E3,3.062E3,3.316E3,8.084E3,5.915E3,3.16E2,1.0908E4,8.052E3,2.268E3,3.256E3,1.147E3],"tree_param":{"num_deleted":"0","num_feature":"38","num_nodes":"127","size_leaf_vector":"1"}},{"base_weights":[2.450496E-4,-6.3317174E-1,2.073306E0,5.874931E-1,-1.1739739E0,1.4594173E0,2.3108513E0,-2.457702E0,1.5084606E0,-2.642686E0,-4.6964842E-1,1.8197684E0,1.1393433E0,2.5383825E0,2.0996861E0,2.334977E0,-2.7035356E0,1.2004205E0,2.0148919E0,-3.2557654E0,-1.1224335E0,5.4857224E-1,-8.735144E-1,1.5351847E0,1.9245673E0,-1.6002849E0,1.18802E0,2.34257E0,2.8173742E0,1.8870772E0,2.4292264E0,1.9567327E0,2.795338E0,-3.1335156E0,-1.7947271E0,1.2175446E0,-1.3734025E0,2.0962746E0,8.4187895E-1,-4.0046687E0,-2.606505E0,-2.6149297E0,-5.8644974E-1,-1.369367E0,2.375572E0,-1.3184823E0,-3.7255287E-2,1.3521736E0,2.0522485E0,1.8999437E0,2.9637413E0,-2.1985786E0,-1.0951475E0,1.32208E0,3.642594E-1,2.2112E0,2.4436E0,2.6959863E0,3.0349708E0,1.7612953E0,2.024753E0,2.319111E0,2.7035291E0,2.2073315E-2,1.0109272E-1,1.3027959E-1,1.590695E-1,-1.7376141E-1,-1.3733928E-1,-9.956575E-2,-3.946188E-2,4.6993617E-2,6.562423E-2,-3.1730812E-2,-1.3358706E-1,9.535693E-2,1.17297664E-1,-5.6569714E-2,4.8538413E-2,-6.868426E-2,-2.4592526E-1,-1.0293888E-1,-2.4132839E-1,-7.781414E-3,-1.3624284E-1,-4.747152E-2,4.461161E-3,-8.1943616E-2,-3.5682004E-2,1.3249159E-1,1.0921816E-1,-4.9373217E-2,-1.08088255E-1,1.672215E-2,-2.7311137E-2,5.7878222E-2,7.568305E-2,9.761648E-2,1.3820699E-1,8.971662E-2,1.0129006E-1,1.6266185E-1,1.2922473E-1,-1.1995367E-1,-7.9995975E-2,-5.922676E-2,-1.847259E-2,5.0373457E-4,6.758186E-2,1.0461398E-1,1.0212507E-2,1.0833786E-1,1.21246256E-1,1.1918052E-1,1.3040654E-1,1.3242368E-1,1.4554252E-1,1.4707607E-1,1.5933686E-1,4.2420477E-2,8.840427E-2,9.5994584E-2,1.04309715E-1,1.11894086E-1,1.2063008E-1,1.3061628E-1,1.479424E-1],"categories":[],"categories_nodes":[],"categories_segments":[],"categories_sizes":[],"default_left":[0,0,0,0,0,0,0,0,0,0,0,0,0,0,0,0,0,0,0,0,0,0,0,0,0,0,0,0,0,0,0,0,0,0,0,0,0,0,0,0,0,0,0,0,0,0,0,0,0,0,0,0,0,0,0,0,0,0,0,0,0,0,0,0,0,0,0,0,0,0,0,0,0,0,0,0,0,0,0,0,0,0,0,0,0,0,0,0,0,0,0,0,0,0,0,0,0,0,0,0,0,0,0,0,0,0,0,0,0,0,0,0,0,0,0,0,0,0,0,0,0,0,0,0,0,0,0],"id":2,"left_children":[1,3,5,7,9,11,13,15,17,19,21,23,25,27,29,31,33,35,37,39,41,43,45,47,49,51,53,55,57,59,61,63,65,67,69,71,73,75,77,79,81,83,85,87,89,91,93,95,97,99,101,103,105,107,109,111,113,115,117,119,121,123,125,-1,-1,-1,-1,-1,-1,-1,-1,-1,-1,-1,-1,-1,-1,-1,-1,-1,-1,-1,-1,-1,-1,-1,-1,-1,-1,-1,-1,-1,-1,-1,-1,-1,-1,-1,-1,-1,-1,-1,-1,-1,-1,-1,-1,-1,-1,-1,-1,-1,-1,-1,-1,-1,-1,-1,-1,-1,-1,-1,-1,-1,-1,-1,-1],"loss_changes":[6.6459225E5,2.5591588E5,1.7269531E4,3.3380388E5,2.7790172E5,3.8095781E3,4.0975E3,3.2569484E4,1.42534375E4,8.115194E4,7.466864E4,4.603164E2,2.3363887E3,2.2383438E3,3.0987812E3,2.2895459E2,1.0267234E4,2.5061875E3,3.2972188E3,3.015975E4,2.001699E4,1.8069797E5,4.837725E4,3.932832E2,2.8448828E2,8.974237E1,1.898916E3,3.1475E2,4.3884375E2,4.624453E2,5.1785156E2,7.227661E1,3.552246E1,2.3480469E3,1.6676484E3,1.4866797E3,3.5863104E2,1.52125E3,5.718074E2,6.926494E4,4.040764E4,1.7867969E3,4.516318E3,4.4445664E3,1.3786875E3,2.3684703E4,8.5423545E3,9.530957E1,7.187842E1,1.4348438E2,1.9663574E1,1.2445618E1,1.030484E1,5.7350977E2,6.6542957E2,9.414453E1,1.2797656E2,1.02875E2,7.596094E1,8.552344E1,7.8390625E1,8.83125E1,1.07421875E2,0E0,0E0,0E0,0E0,0E0,0E0,0E0,0E0,0E0,0E0,0E0,0E0,0E0,0E0,0E0,0E0,0E0,0E0,0E0,0E0,0E0,0E0,0E0,0E0,0E0,0E0,0E0,0E0,0E0,0E0,0E0,0E0,0E0,0E0,0E0,0E0,0E0,0E0,0E0,0E0,0E0,0E0,0E0,0E0,0E0,0E0,0E0,0E0,0E0,0E0,0E0,0E0,0E0,0E0,0E0,0E0,0E0,0E0,0E0,0E0,0E0,0E0,0E0,0E0],"parents":[2147483647,0,0,1,1,2,2,3,3,4,4,5,5,6,6,7,7,8,8,9,9,10,10,11,11,12,12,13,13,14,14,15,15,16,16,17,17,18,18,19,19,20,20,21,21,22,22,23,23,24,24,25,25,26,26,27,27,28,28,29,29,30,30,31,31,32,32,33,33,34,34,35,35,36,36,37,37,38,38,39,39,40,40,41,41,42,42,43,43,44,44,45,45,46,46,47,47,48,48,49,49,50,50,51,51,52,52,53,53,54,54,55,55,56,56,57,57,58,58,59,59,60,60,61,61,62,62],"right_children":[2,4,6,8,10,12,14,16,18,20,22,24,26,28,30,32,34,36,38,40,42,44,46,48,50,52,54,56,58,60,62,64,66,68,70,72,74,76,78,80,82,84,86,88,90,92,94,96,98,100,102,104,106,108,110,112,114,116,118,120,122,124,126,-1,-1,-1,-1,-1,-1,-1,-1,-1,-1,-1,-1,-1,-1,-1,-1,-1,-1,-1,-1,-1,-1,-1,-1,-1,-1,-1,-1,-1,-1,-1,-1,-1,-1,-1,-1,-1,-1,-1,-1,-1,-1,-1,-1,-1,-1,-1,-1,-1,-1,-1,-1,-1,-1,-1,-1,-1,-1,-1,-1,-1,-1,-1,-1],"split_conditions":[2.6390574E0,1.03E2,3.583519E0,1E2,1.74E2,1.03E2,1.03E2,3.1E1,1.3862944E0,1.3862944E0,2.59E2,3.1354942E0,1.11E2,4.060443E0,4.276666E0,1.3862944E0,1.0986123E0,1.02E2,1.02E2,1.22E2,1.11E2,2.53E2,1.609438E0,6.340766E-1,6.8899846E-1,5.363E3,3.01E2,3.8066626E0,4.317488E0,3.9512436E0,4.762174E0,1.0986123E0,1.7917595E0,7.1E1,1.609438E0,3.838E3,6.50168E-1,1.609438E0,1.825E3,1.04E2,1.72E2,1.04E2,1.9459101E0,1.0986123E0,2.54E2,4.57E2,3.06E2,5.6533664E-1,7.065574E-1,6.0124224E-1,3.063E3,2.944439E0,5.612E3,4.8625264E-1,-0E0,2.000158E5,1.739959E5,2.7297528E5,4.4886365E0,1.68E2,4.281E3,4.4886365E0,5.187386E0,2.2073315E-2,1.0109272E-1,1.3027959E-1,1.590695E-1,-1.7376141E-1,-1.3733928E-1,-9.956575E-2,-3.946188E-2,4.6993617E-2,6.562423E-2,-3.1730812E-2,-1.3358706E-1,9.535693E-2,1.17297664E-1,-5.6569714E-2,4.8538413E-2,-6.868426E-2,-2.4592526E-1,-1.0293888E-1,-2.4132839E-1,-7.781414E-3,-1.3624284E-1,-4.747152E-2,4.461161E-3,-8.1943616E-2,-3.5682004E-2,1.3249159E-1,1.0921816E-1,-4.9373217E-2,-1.08088255E-1,1.672215E-2,-2.7311137E-2,5.7878222E-2,7.568305E-2,9.761648E-2,1.3820699E-1,8.971662E-2,1.0129006E-1,1.6266185E-1,1.2922473E-1,-1.1995367E-1,-7.9995975E-2,-5.922676E-2,-1.847259E-2,5.0373457E-4,6.758186E-2,1.0461398E-1,1.0212507E-2,1.0833786E-1,1.21246256E-1,1.1918052E-1,1.3040654E-1,1.3242368E-1,1.4554252E-1,1.4707607E-1,1.5933686E-1,4.2420477E-2,8.840427E-2,9.5994584E-2,1.04309715E-1,1.11894086E-1,1.2063008E-1,1.3061628E-1,1.479424E-1],"split_indices":[37,33,37,33,33,33,33,33,37,37,33,37,33,37,37,37,37,33,33,33,33,33,37,36,36,34,33,37,37,37,37,37,37,33,37,34,36,37,34,33,33,33,37,37,33,33,33,36,36,36,34,37,34,36,30,29,29,29,37,33,34,37,37,0,0,0,0,0,0,0,0,0,0,0,0,0,0,0,0,0,0,0,0,0,0,0,0,0,0,0,0,0,0,0,0,0,0,0,0,0,0,0,0,0,0,0,0,0,0,0,0,0,0,0,0,0,0,0,0,0,0,0,0,0,0,0,0],"split_type":[0,0,0,0,0,0,0,0,0,0,0,0,0,0,0,0,0,0,0,0,0,0,0,0,0,0,0,0,0,0,0,0,0,0,0,0,0,0,0,0,0,0,0,0,0,0,0,0,0,0,0,0,0,0,0,0,0,0,0,0,0,0,0,0,0,0,0,0,0,0,0,0,0,0,0,0,0,0,0,0,0,0,0,0,0,0,0,0,0,0,0,0,0,0,0,0,0,0,0,0,0,0,0,0,0,0,0,0,0,0,0,0,0,0,0,0,0,0,0,0,0,0,0,0,0,0,0],"sum_hessian":[5.06118E5,3.87668E5,1.1845E5,1.19021E5,2.68647E5,3.3049E4,8.5401E4,2.7637E4,9.1384E4,8.7073E4,1.81574E5,1.5544E4,1.7505E4,4.1102E4,4.4299E4,1.348E3,2.6289E4,5.6824E4,3.456E4,6.2049E4,2.5024E4,5.1566E4,1.30008E5,4.188E3,1.1356E4,3.05E2,1.72E4,2.4157E4,1.6945E4,2.6931E4,1.7368E4,7.43E2,6.05E2,1.7844E4,8.445E3,5.6449E4,3.75E2,3.2317E4,2.243E3,2.8811E4,3.3238E4,6.611E3,1.8413E4,2.5157E4,2.6409E4,8.4856E4,4.5152E4,3.096E3,1.092E3,1.1096E4,2.6E2,1.38E2,1.67E2,1.4792E4,2.408E3,1.0512E4,1.3645E4,1.0886E4,6.059E3,1.4081E4,1.285E4,1.24E4,4.968E3,3.1E1,7.12E2,4.11E2,1.94E2,9.469E3,8.375E3,7.063E3,1.382E3,1.4386E4,4.2063E4,2.4E2,1.35E2,1.8393E4,1.3924E4,1.37E2,2.106E3,7.428E3,2.1383E4,2.6662E4,6.576E3,2.83E2,6.328E3,1.1978E4,6.435E3,1.7828E4,7.329E3,1.0843E4,1.5566E4,6.0938E4,2.3918E4,2.6095E4,1.9057E4,1.408E3,1.688E3,9.61E2,1.31E2,6.042E3,5.054E3,1.43E2,1.17E2,1.01E2,3.7E1,1.48E2,1.9E1,3.26E2,1.4466E4,2.03E2,2.205E3,8.712E3,1.8E3,1.0011E4,3.634E3,8.926E3,1.96E3,3.763E3,2.296E3,1.05E2,1.3976E4,4.76E3,8.09E3,6.649E3,5.751E3,3.669E3,1.299E3],"tree_param":{"num_deleted":"0","num_feature":"38","num_nodes":"127","size_leaf_vector":"1"}},{"base_weights":[-1.5490587E-4,1.0943643E0,-5.8167773E-1,-2.3325834E0,1.7352668E0,-3.5081806E0,-2.1248665E-1,2.210273E0,-2.5653856E0,1.4597107E0,2.1488404E0,-1.2620507E0,-4.1034455E0,-3.0661076E-2,-1.7798451E0,1.9435856E0,2.4227426E0,-3.0701258E0,-2.1094694E0,1.2465017E0,1.6386502E0,1.0911883E0,2.2215197E0,-1.3397107E0,-6.8314713E-1,-3.1897635E0,-4.4208093E0,-1.4417287E0,2.218993E-1,-1.7582611E0,-2.8893316E0,2.206437E-2,1.9654365E0,1.165759E-1,1.2881882E-1,-3.1375794E0,-2.7575269E0,-1.9008294E0,-2.4002564E0,1.0906535E0,1.3661469E0,1.7958266E0,1.5233475E0,1.3158498E0,-1.1454946E-1,-2.498962E-1,2.234917E0,-1.500517E0,-1.2626463E0,5.848479E-1,-7.95001E-1,-5.1381855E0,-2.6128056E0,-4.219065E0,-5.523817E0,9.3043E-1,-1.4752268E0,1.7276908E0,-3.2265687E-1,-1.3538506E0,-1.8425268E0,-3.0848172E0,-2.601139E0,1.03480555E-1,9.4510056E-2,-1.6007179E-1,-1.4534155E-1,-1.4947489E-1,-1.3117E-1,-9.757233E-2,-2.4434952E-2,-1.060424E-1,-1.2879737E-1,5.2078124E-2,7.588197E-2,7.622733E-2,6.2254973E-2,9.17324E-2,7.266586E-2,7.249446E-2,8.885221E-2,2.9659802E-2,8.086307E-2,-9.857298E-2,5.853206E-2,2.6234774E-2,-2.296599E-2,1.0216131E-1,1.1932515E-1,-6.114033E-2,-8.122771E-2,-6.2191922E-2,-1.09258614E-1,-6.200645E-2,6.364209E-2,-5.2992936E-2,-1.7397268E-2,-2.6135716E-1,-1.0284606E-1,-1.4619294E-1,-6.0480982E-2,-2.3435572E-1,-1.9394079E-1,-2.8807142E-1,-1.1663222E-1,8.371233E-2,-3.501178E-3,-8.3155245E-2,-6.5055504E-2,5.3159934E-2,9.353263E-2,-2.632154E-1,-7.4519883E-3,-6.6006206E-2,-1.423816E-1,-9.0437375E-2,-1.1803025E-1,-1.4286609E-1,-1.6146387E-1,-1.3232991E-1,-9.202918E-2],"categories":[],"categories_nodes":[],"categories_segments":[],"categories_sizes":[],"default_left":[0,0,0,0,0,0,0,0,0,0,0,0,0,0,0,0,0,0,0,0,0,0,0,0,0,0,0,0,0,0,0,0,0,0,0,0,0,0,0,0,0,0,0,0,0,0,0,0,0,0,0,0,0,0,0,0,0,0,0,0,0,0,0,0,0,0,0,0,0,0,0,0,0,0,0,0,0,0,0,0,0,0,0,0,0,0,0,0,0,0,0,0,0,0,0,0,0,0,0,0,0,0,0,0,0,0,0,0,0,0,0,0,0,0,0,0,0,0,0,0,0],"id":3,"left_children":[1,3,5,7,9,11,13,15,17,19,21,23,25,27,29,31,33,35,37,39,41,43,45,47,49,51,53,55,57,59,61,-1,63,-1,-1,65,67,69,71,73,75,77,79,81,83,85,87,89,91,93,95,97,99,101,103,105,107,109,111,113,115,117,119,-1,-1,-1,-1,-1,-1,-1,-1,-1,-1,-1,-1,-1,-1,-1,-1,-1,-1,-1,-1,-1,-1,-1,-1,-1,-1,-1,-1,-1,-1,-1,-1,-1,-1,-1,-1,-1,-1,-1,-1,-1,-1,-1,-1,-1,-1,-1,-1,-1,-1,-1,-1,-1,-1,-1,-1,-1,-1],"loss_changes":[3.2184325E5,3.853364E5,3.5677275E5,2.9239547E4,1.6840438E4,4.9452812E4,8.356389E4,7.123584E1,6.044E3,3.3818906E3,4.5400625E3,3.4734863E2,8.464125E3,9.3636734E4,7.243672E2,1.868628E1,3.9575195E0,2.5385156E2,8.3340625E2,7.5308984E2,8.7090625E2,1.030167E3,1.8316562E3,8.250586E1,1.3082782E2,8.464203E3,4.8045E3,3.1710312E3,1.8273995E5,1.0161406E3,2.4083496E1,0E0,3.474121E-1,0E0,0E0,1.411875E2,6.076172E1,5.742715E2,2.7726562E2,3.6678906E2,4.3682812E2,2.6827344E2,5.1565625E2,6.969204E2,1.4295051E3,4.8737576E1,1.5928125E3,7.378662E1,7.72041E1,9.574973E1,9.954358E1,4.6051953E2,2.5367148E3,2.9030938E3,2.5274453E3,4.1402737E2,1.2842344E3,5.6205E3,1.4041845E5,2.5578418E2,4.283125E2,1.3381348E0,3.012329E0,0E0,0E0,0E0,0E0,0E0,0E0,0E0,0E0,0E0,0E0,0E0,0E0,0E0,0E0,0E0,0E0,0E0,0E0,0E0,0E0,0E0,0E0,0E0,0E0,0E0,0E0,0E0,0E0,0E0,0E0,0E0,0E0,0E0,0E0,0E0,0E0,0E0,0E0,0E0,0E0,0E0,0E0,0E0,0E0,0E0,0E0,0E0,0E0,0E0,0E0,0E0,0E0,0E0,0E0,0E0,0E0,0E0,0E0],"parents":[2147483647,0,0,1,1,2,2,3,3,4,4,5,5,6,6,7,7,8,8,9,9,10,10,11,11,12,12,13,13,14,14,15,15,16,16,17,17,18,18,19,19,20,20,21,21,22,22,23,23,24,24,25,25,26,26,27,27,28,28,29,29,30,30,32,32,35,35,36,36,37,37,38,38,39,39,40,40,41,41,42,42,43,43,44,44,45,45,46,46,47,47,48,48,49,49,50,50,51,51,52,52,53,53,54,54,55,55,56,56,57,57,58,58,59,59,60,60,61,61,62,62],"right_children":[2,4,6,8,10,12,14,16,18,20,22,24,26,28,30,32,34,36,38,40,42,44,46,48,50,52,54,56,58,60,62,-1,64,-1,-1,66,68,70,72,74,76,78,80,82,84,86,88,90,92,94,96,98,100,102,104,106,108,110,112,114,116,118,120,-1,-1,-1,-1,-1,-1,-1,-1,-1,-1,-1,-1,-1,-1,-1,-1,-1,-1,-1,-1,-1,-1,-1,-1,-1,-1,-1,-1,-1,-1,-1,-1,-1,-1,-1,-1,-1,-1,-1,-1,-1,-1,-1,-1,-1,-1,-1,-1,-1,-1,-1,-1,-1,-1,-1,-1,-1,-1],"split_conditions":[1.03E2,8.8E1,1.23E2,3.1E1,1.02E2,1.04E2,4.57E2,1.33525E5,7.1E1,4.342E3,2.972E3,6.4805746E-1,5.4714835E-1,1.68E2,2.504E3,1.382E4,2.32156E5,1.3907711E5,5.795535E-1,3.818E3,4.3388373E-1,6.53383E-1,-0E0,4.41E3,6.4875865E-1,4.1E3,6.1780316E-1,4.8625264E-1,1.72E2,5.435275E-1,5E3,2.206437E-2,4.3388373E-1,1.165759E-1,1.2881882E-1,1.11215E5,4.36309E3,6.075E3,-2.4492937E-16,1.4539733E5,4.3388373E-1,6.204147E-1,5.111E3,5.522015E-1,6.6025305E-1,1E0,4.304E3,3.975E3,6.465517E-1,6E0,6.701742E-1,1.11E2,5.4285717E-1,4.411E3,1.11E2,-0E0,6E0,3.632E3,1.73E2,4.81E2,4.78E2,2E0,3.5E5,1.03480555E-1,9.4510056E-2,-1.6007179E-1,-1.4534155E-1,-1.4947489E-1,-1.3117E-1,-9.757233E-2,-2.4434952E-2,-1.060424E-1,-1.2879737E-1,5.2078124E-2,7.588197E-2,7.622733E-2,6.2254973E-2,9.17324E-2,7.266586E-2,7.249446E-2,8.885221E-2,2.9659802E-2,8.086307E-2,-9.857298E-2,5.853206E-2,2.6234774E-2,-2.296599E-2,1.0216131E-1,1.1932515E-1,-6.114033E-2,-8.122771E-2,-6.2191922E-2,-1.09258614E-1,-6.200645E-2,6.364209E-2,-5.2992936E-2,-1.7397268E-2,-2.6135716E-1,-1.0284606E-1,-1.4619294E-1,-6.0480982E-2,-2.3435572E-1,-1.9394079E-1,-2.8807142E-1,-1.1663222E-1,8.371233E-2,-3.501178E-3,-8.3155245E-2,-6.5055504E-2,5.3159934E-2,9.353263E-2,-2.632154E-1,-7.4519883E-3,-6.6006206E-2,-1.423816E-1,-9.0437375E-2,-1.1803025E-1,-1.4286609E-1,-1.6146387E-1,-1.3232991E-1,-9.202918E-2],"split_indices":[33,33,33,33,33,33,33,11,33,34,34,36,36,33,30,11,11,11,36,34,9,36,30,34,36,34,36,36,33,36,30,0,9,0,0,13,15,34,7,11,9,36,34,36,36,0,34,34,36,2,36,33,36,34,33,30,2,34,33,33,33,0,12,0,0,0,0,0,0,0,0,0,0,0,0,0,0,0,0,0,0,0,0,0,0,0,0,0,0,0,0,0,0,0,0,0,0,0,0,0,0,0,0,0,0,0,0,0,0,0,0,0,0,0,0,0,0,0,0,0,0],"split_type":[0,0,0,0,0,0,0,0,0,0,0,0,0,0,0,0,0,0,0,0,0,0,0,0,0,0,0,0,0,0,0,0,0,0,0,0,0,0,0,0,0,0,0,0,0,0,0,0,0,0,0,0,0,0,0,0,0,0,0,0,0,0,0,0,0,0,0,0,0,0,0,0,0,0,0,0,0,0,0,0,0,0,0,0,0,0,0,0,0,0,0,0,0,0,0,0,0,0,0,0,0,0,0,0,0,0,0,0,0,0,0,0,0,0,0,0,0,0,0,0,0],"sum_hessian":[5.05653E5,1.75442E5,3.30211E5,2.7641E4,1.47801E5,3.699E4,2.93221E5,1.347E3,2.6294E4,8.8704E4,5.9097E4,7.75E3,2.924E4,2.62742E5,3.0479E4,6.02E2,7.45E2,1.2476E4,1.3818E4,4.048E4,4.8224E4,3.801E3,5.5296E4,6.832E3,9.18E2,7.541E3,2.1699E4,3.9887E4,2.22855E5,2.99E4,5.79E2,9E0,5.93E2,4.78E2,2.67E2,1.0254E4,2.222E3,8.05E3,5.768E3,1.7585E4,2.2895E4,2.04E4,2.7824E4,3.204E3,5.97E2,2.98E2,5.4998E4,2.207E3,4.625E3,7.4E1,8.44E2,1.721E3,5.82E3,1.8348E4,3.351E3,5.55E2,3.9332E4,5.9188E4,1.63667E5,5.159E3,2.4741E4,3.39E2,2.4E2,2.37E2,3.56E2,8.021E3,2.233E3,8.06E2,1.416E3,7.771E3,2.79E2,2.232E3,3.536E3,1.5775E4,1.81E3,9.912E3,1.2983E4,1.8319E4,2.081E3,2.1582E4,6.242E3,9.44E2,2.26E3,2.44E2,3.53E2,6.3E1,2.35E2,2.4293E4,3.0705E4,6.85E2,1.522E3,4.535E3,9E1,2E1,5.4E1,5.29E2,3.15E2,1.672E3,4.9E1,4.763E3,1.057E3,7.718E3,1.063E4,3.118E3,2.33E2,3.18E2,2.37E2,1.8914E4,2.0418E4,1.0481E4,4.8707E4,5.554E3,1.58113E5,5.047E3,1.12E2,2.3231E4,1.51E3,1.4E2,1.99E2,2.24E2,1.6E1],"tree_param":{"num_deleted":"0","num_feature":"38","num_nodes":"121","size_leaf_vector":"1"}},{"base_weights":[-3.8347786E-4,-5.825468E-1,1.8561767E0,-1.157493E0,-1.0120258E-1,1.251382E0,2.0851421E0,-1.4382467E0,-1.0212052E0,-4.5778936E-1,1.3811646E-1,8.145152E-1,1.4488285E0,1.883097E0,2.3458345E0,-1.4949597E0,-9.2910886E-1,-1.0338748E0,4.443745E-1,1.5305877E0,-4.8067868E-1,1.4661188E-2,5.987488E-1,6.982405E-1,1.4714433E0,1.2527889E0,1.6072251E0,1.6553881E0,1.9592397E0,2.211465E0,2.5356092E0,-1.6752048E0,-1.3882979E0,2.0961498E-1,-1.0349094E0,-5.27088E-1,-1.067987E0,3.7210003E-1,1.7998298E0,-1.1350815E-1,1.9029897E0,-1.5131156E-1,-5.3142816E-1,2.8938237E-1,-7.020647E-2,4.9604112E-1,1.4933131E0,6.1211425E-1,1.2743828E0,1.6479467E-1,1.515634E0,1.1023381E0,1.3599511E0,1.5770817E0,2.5831988E0,1.5700309E0,1.7819148E0,1.854805E0,2.084326E0,2.0372968E0,2.2929876E0,1.7522686E0,2.5718782E0,-8.701677E-2,-4.747707E-2,-3.460301E-2,-7.15571E-2,4.3023255E-2,-1.3456784E-2,-4.6613917E-2,-9.858145E-2,4.3687243E-2,-2.9747212E-2,-3.1928856E-2,-5.473702E-2,-1.0611058E-2,2.4835348E-2,1.1577415E-1,-1.3833958E-2,-3.56736E-2,4.704985E-3,9.041708E-2,1.5152429E-1,-2.2637917E-2,4.182143E-3,-2.90789E-2,-1.7360501E-2,1.0564421E-2,2.938076E-2,-6.931843E-3,1.0876577E-2,9.768828E-3,3.3721577E-2,1.2975138E-1,6.1127704E-2,4.5182344E-2,1.9162081E-2,9.0695135E-2,5.3451102E-2,-7.3444345E-3,4.105093E-2,7.248445E-2,1.0455672E-1,5.611055E-2,-1.899546E-2,5.356571E-2,6.990867E-2,3.0525044E-2,8.00548E-2,1.4517938E-1,1.1154076E-1,6.808753E-2,8.088997E-2,7.794574E-2,9.146481E-2,9.01938E-2,1.01035E-1,1.1060732E-1,1.0162552E-1,9.974524E-2,1.1269722E-1,1.12258315E-1,1.2492651E-1,7.2954044E-2,1.1605032E-1,1.1668827E-1,1.3153115E-1],"categories":[],"categories_nodes":[],"categories_segments":[],"categories_sizes":[],"default_left":[0,0,0,0,0,0,0,0,0,0,0,0,0,0,0,0,0,0,0,0,0,0,0,0,0,0,0,0,0,0,0,0,0,0,0,0,0,0,0,0,0,0,0,0,0,0,0,0,0,0,0,0,0,0,0,0,0,0,0,0,0,0,0,0,0,0,0,0,0,0,0,0,0,0,0,0,0,0,0,0,0,0,0,0,0,0,0,0,0,0,0,0,0,0,0,0,0,0,0,0,0,0,0,0,0,0,0,0,0,0,0,0,0,0,0,0,0,0,0,0,0,0,0,0,0,0,0],"id":4,"left_children":[1,3,5,7,9,11,13,15,17,19,21,23,25,27,29,31,33,35,37,39,41,43,45,47,49,51,53,55,57,59,61,63,65,67,69,71,73,75,77,79,81,83,85,87,89,91,93,95,97,99,101,103,105,107,109,111,113,115,117,119,121,123,125,-1,-1,-1,-1,-1,-1,-1,-1,-1,-1,-1,-1,-1,-1,-1,-1,-1,-1,-1,-1,-1,-1,-1,-1,-1,-1,-1,-1,-1,-1,-1,-1,-1,-1,-1,-1,-1,-1,-1,-1,-1,-1,-1,-1,-1,-1,-1,-1,-1,-1,-1,-1,-1,-1,-1,-1,-1,-1,-1,-1,-1,-1,-1,-1],"loss_changes":[5.4717856E5,1.0666057E5,1.6732406E4,6.718375E3,1.7902473E4,2.8615742E3,4.6125312E3,1.6555469E3,2.1959844E3,3.8350645E3,7.138677E3,7.881089E2,7.074883E2,8.5278125E2,9.6984375E2,9.90125E2,6.9364795E2,2.0257969E3,9.844942E1,5.875571E2,1.3920957E3,2.308245E3,2.436876E3,4.3480225E2,8.925464E1,1.6302637E2,3.673418E2,1.3061328E2,4.7920312E2,3.1315625E2,4.4560156E2,9.0514453E2,9.666797E2,1.5297223E2,5.0412695E2,7.034253E2,1.2608828E3,7.032315E1,5.5453186E1,2.2300255E1,7.7487305E1,7.8780444E2,6.6645703E2,5.4399426E2,1.4892969E3,1.276417E3,8.113989E2,5.0942847E2,1.2419116E2,1.0823784E1,5.3617676E1,1.2589746E2,6.4052734E1,2.834453E2,3.557251E1,7.116211E1,4.944043E1,1.6646094E2,1.0655469E2,6.079883E1,1.4391406E2,1.1379224E2,2.0533594E2,0E0,0E0,0E0,0E0,0E0,0E0,0E0,0E0,0E0,0E0,0E0,0E0,0E0,0E0,0E0,0E0,0E0,0E0,0E0,0E0,0E0,0E0,0E0,0E0,0E0,0E0,0E0,0E0,0E0,0E0,0E0,0E0,0E0,0E0,0E0,0E0,0E0,0E0,0E0,0E0,0E0,0E0,0E0,0E0,0E0,0E0,0E0,0E0,0E0,0E0,0E0,0E0,0E0,0E0,0E0,0E0,0E0,0E0,0E0,0E0,0E0,0E0,0E0,0E0],"parents":[2147483647,0,0,1,1,2,2,3,3,4,4,5,5,6,6,7,7,8,8,9,9,10,10,11,11,12,12,13,13,14,14,15,15,16,16,17,17,18,18,19,19,20,20,21,21,22,22,23,23,24,24,25,25,26,26,27,27,28,28,29,29,30,30,31,31,32,32,33,33,34,34,35,35,36,36,37,37,38,38,39,39,40,40,41,41,42,42,43,43,44,44,45,45,46,46,47,47,48,48,49,49,50,50,51,51,52,52,53,53,54,54,55,55,56,56,57,57,58,58,59,59,60,60,61,61,62,62],"right_children":[2,4,6,8,10,12,14,16,18,20,22,24,26,28,30,32,34,36,38,40,42,44,46,48,50,52,54,56,58,60,62,64,66,68,70,72,74,76,78,80,82,84,86,88,90,92,94,96,98,100,102,104,106,108,110,112,114,116,118,120,122,124,126,-1,-1,-1,-1,-1,-1,-1,-1,-1,-1,-1,-1,-1,-1,-1,-1,-1,-1,-1,-1,-1,-1,-1,-1,-1,-1,-1,-1,-1,-1,-1,-1,-1,-1,-1,-1,-1,-1,-1,-1,-1,-1,-1,-1,-1,-1,-1,-1,-1,-1,-1,-1,-1,-1,-1,-1,-1,-1,-1,-1,-1,-1,-1,-1],"split_conditions":[2.5649493E0,1.0986123E0,3.5553482E0,4.990464E4,1.3862944E0,2.9957323E0,6.52042E4,1.1973877E5,1.6298927E5,1.256E3,7.660019E4,6.4805746E-1,4.3890734E4,4.316887E4,8.480736E4,5.79023E-1,3.5294812E4,3.506E3,2E1,4.2763996E4,3.632E3,-1.194652E5,1.4144562E5,8.487523E4,2.373531E4,3.295837E0,6.560045E-1,3.8918202E0,4.0073333E0,4.0253515E0,-0E0,2E1,5.840971E-1,3.554E3,4.8939777E4,4.8625264E-1,-3.2403756E5,6E0,2.4E1,2.75E2,2E1,4.579777E4,7.633261E4,4E0,2.0794415E0,1.609438E0,1.256E3,4.073E3,1E0,3.6423242E4,7.69279E4,5.213E3,3.488E3,4.8625264E-1,3.063E3,3.751E3,3.719E3,1.0225987E5,1E0,2.1544327E5,1.739959E5,4.553877E0,3.9512436E0,-8.701677E-2,-4.747707E-2,-3.460301E-2,-7.15571E-2,4.3023255E-2,-1.3456784E-2,-4.6613917E-2,-9.858145E-2,4.3687243E-2,-2.9747212E-2,-3.1928856E-2,-5.473702E-2,-1.0611058E-2,2.4835348E-2,1.1577415E-1,-1.3833958E-2,-3.56736E-2,4.704985E-3,9.041708E-2,1.5152429E-1,-2.2637917E-2,4.182143E-3,-2.90789E-2,-1.7360501E-2,1.0564421E-2,2.938076E-2,-6.931843E-3,1.0876577E-2,9.768828E-3,3.3721577E-2,1.2975138E-1,6.1127704E-2,4.5182344E-2,1.9162081E-2,9.0695135E-2,5.3451102E-2,-7.3444345E-3,4.105093E-2,7.248445E-2,1.0455672E-1,5.611055E-2,-1.899546E-2,5.356571E-2,6.990867E-2,3.0525044E-2,8.00548E-2,1.4517938E-1,1.1154076E-1,6.808753E-2,8.088997E-2,7.794574E-2,9.146481E-2,9.01938E-2,1.01035E-1,1.1060732E-1,1.0162552E-1,9.974524E-2,1.1269722E-1,1.12258315E-1,1.2492651E-1,7.2954044E-2,1.1605032E-1,1.1668827E-1,1.3153115E-1],"split_indices":[37,37,37,35,37,37,35,29,35,34,35,36,35,35,35,36,35,34,30,35,34,29,35,35,35,37,36,37,37,37,30,30,36,34,35,36,29,1,1,34,30,35,35,0,37,37,34,34,0,29,35,34,34,36,34,34,34,29,0,29,29,37,37,0,0,0,0,0,0,0,0,0,0,0,0,0,0,0,0,0,0,0,0,0,0,0,0,0,0,0,0,0,0,0,0,0,0,0,0,0,0,0,0,0,0,0,0,0,0,0,0,0,0,0,0,0,0,0,0,0,0,0,0,0,0,0,0],"split_type":[0,0,0,0,0,0,0,0,0,0,0,0,0,0,0,0,0,0,0,0,0,0,0,0,0,0,0,0,0,0,0,0,0,0,0,0,0,0,0,0,0,0,0,0,0,0,0,0,0,0,0,0,0,0,0,0,0,0,0,0,0,0,0,0,0,0,0,0,0,0,0,0,0,0,0,0,0,0,0,0,0,0,0,0,0,0,0,0,0,0,0,0,0,0,0,0,0,0,0,0,0,0,0,0,0,0,0,0,0,0,0,0,0,0,0,0,0,0,0,0,0,0,0,0,0,0,0],"sum_hessian":[5.0626E5,3.85408E5,1.20852E5,1.75627E5,2.09781E5,3.319E4,8.7662E4,5.7391E4,1.18236E5,8.4249E4,1.25532E5,1.0333E4,2.2857E4,4.9391E4,3.8271E4,5.1637E4,5.754E3,1.17223E5,1.013E3,9.58E2,8.3291E4,9.9E4,2.6532E4,8.781E3,1.552E3,1.0219E4,1.2638E4,1.2383E4,3.7008E4,2.2414E4,1.5857E4,1.9191E4,3.2446E4,4.89E2,5.265E3,7.394E3,1.09829E5,9.63E2,5E1,1.77E2,7.81E2,1.1121E4,7.217E4,2.3365E4,7.5635E4,2.3801E4,2.731E3,7.641E3,1.14E3,5.1E1,1.501E3,4.256E3,5.963E3,1.2262E4,3.76E2,7.403E3,4.98E3,2.0178E4,1.683E4,7.155E3,1.5259E4,7.04E2,1.5153E4,1.7609E4,1.582E3,1.882E3,3.0564E4,2.07E2,2.82E2,4.747E3,5.18E2,3.41E2,7.053E3,6.443E3,1.03386E5,1.69E2,7.94E2,4E1,1E1,4.5E1,1.32E2,7.23E2,5.8E1,4.871E3,6.25E3,5.6725E4,1.5445E4,1.8518E4,4.847E3,6.1104E4,1.4531E4,8.864E3,1.4937E4,5.37E2,2.194E3,3.359E3,4.282E3,3.12E2,8.28E2,3.5E1,1.6E1,1.35E3,1.51E2,4.2E3,5.6E1,7.01E2,5.262E3,2.98E2,1.1964E4,1.93E2,1.83E2,1.387E3,6.016E3,8.79E2,4.101E3,1.5448E4,4.73E3,4.842E3,1.1988E4,5.993E3,1.162E3,1.2389E4,2.87E3,4.67E2,2.37E2,3.007E3,1.2146E4],"tree_param":{"num_deleted":"0","num_feature":"38","num_nodes":"127","size_leaf_vector":"1"}},{"base_weights":[-9.8168E-4,-5.6168914E-1,1.740107E0,5.513074E-1,-1.0579398E0,1.0769963E0,1.9564232E0,-2.177971E0,1.3816583E0,-2.4125872E0,-4.2054135E-1,1.4708732E0,8.0625963E-1,1.757573E0,2.1607163E0,-2.3927693E0,2.0154321E0,1.1068469E0,1.842816E0,-3.2700799E0,-1.5071671E0,5.315992E-1,-8.1408376E-1,1.3680478E0,1.83955E0,-1.4489992E0,8.730713E-1,1.9656262E0,1.4911163E0,2.4255004E0,1.9798036E0,-2.7831018E0,-1.5656726E0,1.6906453E0,2.4196346E0,1.3807342E0,9.604855E-1,1.9063451E0,5.3454E-1,-1.3099921E0,-3.6063828E0,-2.6858637E0,-9.049553E-1,-1.2582896E0,2.3188195E0,-1.1805344E0,-7.652876E-2,1.108014E0,1.4931097E0,1.7484485E0,2.5982127E0,-2.1980393E0,-9.4947577E-1,1.0269898E0,2.4286702E-1,1.841134E0,2.0724225E0,1.3892082E0,1.58381E0,2.318291E0,2.650319E0,1.8433672E0,2.2548969E0,-1.5477352E-1,-1.2152107E-1,-8.6885005E-2,-3.326244E-2,3.2712802E-2,8.620026E-2,1.12274066E-1,1.3864794E-1,4.332083E-2,7.556435E-2,4.913369E-2,-6.0534496E-2,8.6707704E-2,1.0670761E-1,-5.5830993E-2,3.4437224E-2,-6.902307E-2,-3.872974E-2,-2.4455814E-1,-1.3694336E-1,-2.0321216E-2,-1.4714707E-1,-3.901865E-2,-2.1559191E-1,-7.4729085E-2,-3.3322442E-2,1.2883197E-1,1.06786266E-1,-4.4477638E-2,-9.577325E-2,1.9197129E-1,-5.9203836E-3,1.042066E-1,5.2828945E-2,7.132709E-2,8.3555825E-2,7.9279505E-2,9.067316E-2,1.1995256E-1,1.4073926E-1,-1.1309689E-1,-2.6846627E-2,-5.4739814E-2,-1.16520375E-2,-1.4642367E-2,5.293215E-2,1.2040522E-1,4.4557652E-3,8.9478396E-2,9.962686E-2,1.012632E-1,1.1215001E-1,7.006913E-2,3.8148966E-2,7.517832E-2,8.2323246E-2,1.1380167E-1,1.2562694E-1,1.2869516E-1,1.4122583E-1,8.7037474E-2,9.6348695E-2,1.0967052E-1,1.3055524E-1],"categories":[],"categories_nodes":[],"categories_segments":[],"categories_sizes":[],"default_left":[0,0,0,0,0,0,0,0,0,0,0,0,0,0,0,0,0,0,0,0,0,0,0,0,0,0,0,0,0,0,0,0,0,0,0,0,0,0,0,0,0,0,0,0,0,0,0,0,0,0,0,0,0,0,0,0,0,0,0,0,0,0,0,0,0,0,0,0,0,0,0,0,0,0,0,0,0,0,0,0,0,0,0,0,0,0,0,0,0,0,0,0,0,0,0,0,0,0,0,0,0,0,0,0,0,0,0,0,0,0,0,0,0,0,0,0,0,0,0,0,0,0,0,0,0,0,0],"id":5,"left_children":[1,3,5,7,9,11,13,15,17,19,21,23,25,27,29,31,33,35,37,39,41,43,45,47,49,51,53,55,57,59,61,63,65,67,69,71,73,75,77,79,81,83,85,87,89,91,93,95,97,99,101,103,105,107,109,111,113,115,117,119,121,123,125,-1,-1,-1,-1,-1,-1,-1,-1,-1,-1,-1,-1,-1,-1,-1,-1,-1,-1,-1,-1,-1,-1,-1,-1,-1,-1,-1,-1,-1,-1,-1,-1,-1,-1,-1,-1,-1,-1,-1,-1,-1,-1,-1,-1,-1,-1,-1,-1,-1,-1,-1,-1,-1,-1,-1,-1,-1,-1,-1,-1,-1,-1,-1,-1],"loss_changes":[4.9357188E5,2.112242E5,1.7663562E4,2.672651E5,2.2837781E5,3.2292578E3,3.76825E3,2.4784117E4,1.1456969E4,6.570141E4,6.739764E4,4.649629E2,2.7069258E3,2.6058281E3,2.1887188E3,8.444E3,1.7154395E2,2.2697812E3,2.8048125E3,2.8646188E4,2.921857E4,1.682729E5,3.439664E4,3.120039E2,1.8080469E2,1.9104053E2,1.6914023E3,3.471172E2,1.9247266E2,4.4133594E2,1.0168828E3,1.9504531E3,1.2986602E3,2.4460693E1,2.988379E1,1.3233008E3,1.7803047E3,1.2589297E3,3.992008E2,2.3893652E2,4.1335188E4,8.1554844E3,1.1561193E4,3.674254E3,1.2365156E3,1.8180078E4,6.9279277E3,1.5508276E2,7.450488E1,2.2228027E1,5.0616455E0,2.037091E1,3.2095245E1,5.8597363E2,1.1397488E3,9.138672E1,1.0938281E2,7.373242E1,5.151367E1,9.7171875E1,7.198047E1,1.5240625E2,1.913086E2,0E0,0E0,0E0,0E0,0E0,0E0,0E0,0E0,0E0,0E0,0E0,0E0,0E0,0E0,0E0,0E0,0E0,0E0,0E0,0E0,0E0,0E0,0E0,0E0,0E0,0E0,0E0,0E0,0E0,0E0,0E0,0E0,0E0,0E0,0E0,0E0,0E0,0E0,0E0,0E0,0E0,0E0,0E0,0E0,0E0,0E0,0E0,0E0,0E0,0E0,0E0,0E0,0E0,0E0,0E0,0E0,0E0,0E0,0E0,0E0,0E0,0E0,0E0,0E0],"parents":[2147483647,0,0,1,1,2,2,3,3,4,4,5,5,6,6,7,7,8,8,9,9,10,10,11,11,12,12,13,13,14,14,15,15,16,16,17,17,18,18,19,19,20,20,21,21,22,22,23,23,24,24,25,25,26,26,27,27,28,28,29,29,30,30,31,31,32,32,33,33,34,34,35,35,36,36,37,37,38,38,39,39,40,40,41,41,42,42,43,43,44,44,45,45,46,46,47,47,48,48,49,49,50,50,51,51,52,52,53,53,54,54,55,55,56,56,57,57,58,58,59,59,60,60,61,61,62,62],"right_children":[2,4,6,8,10,12,14,16,18,20,22,24,26,28,30,32,34,36,38,40,42,44,46,48,50,52,54,56,58,60,62,64,66,68,70,72,74,76,78,80,82,84,86,88,90,92,94,96,98,100,102,104,106,108,110,112,114,116,118,120,122,124,126,-1,-1,-1,-1,-1,-1,-1,-1,-1,-1,-1,-1,-1,-1,-1,-1,-1,-1,-1,-1,-1,-1,-1,-1,-1,-1,-1,-1,-1,-1,-1,-1,-1,-1,-1,-1,-1,-1,-1,-1,-1,-1,-1,-1,-1,-1,-1,-1,-1,-1,-1,-1,-1,-1,-1,-1,-1,-1,-1,-1,-1,-1,-1,-1],"split_conditions":[2.4849067E0,1.03E2,3.465736E0,1E2,1.73E2,1.03E2,4.0253515E0,7E2,1.3862944E0,1.0986123E0,2.59E2,6.3370997E-1,1.11E2,1.03E2,1.03E2,1.0986123E0,1.3862944E0,6.8E1,1.02E2,1.04E2,1.11E2,2.53E2,1.609438E0,3.0910425E0,2.31E2,5.28E3,3.01E2,3.7612002E0,3.7612002E0,4.317488E0,4.553877E0,7.1E1,1.609438E0,1.0986123E0,1.7917595E0,3.818E3,1.02E2,1.609438E0,1.825E3,6.4805746E-1,1.22E2,1.04E2,1.72E2,1.0986123E0,2.54E2,4.57E2,-0E0,1.02E2,9.315959E4,2.8903718E0,3.1354942E0,2E1,6.075E3,4.8625264E-1,-0E0,1.3663272E5,1.9524528E5,3.01E2,4.304E3,2.7297528E5,4.5217886E0,4.2341065E0,5.187386E0,-1.5477352E-1,-1.2152107E-1,-8.6885005E-2,-3.326244E-2,3.2712802E-2,8.620026E-2,1.12274066E-1,1.3864794E-1,4.332083E-2,7.556435E-2,4.913369E-2,-6.0534496E-2,8.6707704E-2,1.0670761E-1,-5.5830993E-2,3.4437224E-2,-6.902307E-2,-3.872974E-2,-2.4455814E-1,-1.3694336E-1,-2.0321216E-2,-1.4714707E-1,-3.901865E-2,-2.1559191E-1,-7.4729085E-2,-3.3322442E-2,1.2883197E-1,1.06786266E-1,-4.4477638E-2,-9.577325E-2,1.9197129E-1,-5.9203836E-3,1.042066E-1,5.2828945E-2,7.132709E-2,8.3555825E-2,7.9279505E-2,9.067316E-2,1.1995256E-1,1.4073926E-1,-1.1309689E-1,-2.6846627E-2,-5.4739814E-2,-1.16520375E-2,-1.4642367E-2,5.293215E-2,1.2040522E-1,4.4557652E-3,8.9478396E-2,9.962686E-2,1.012632E-1,1.1215001E-1,7.006913E-2,3.8148966E-2,7.517832E-2,8.2323246E-2,1.1380167E-1,1.2562694E-1,1.2869516E-1,1.4122583E-1,8.7037474E-2,9.6348695E-2,1.0967052E-1,1.3055524E-1],"split_indices":[37,33,37,33,33,33,37,31,37,37,33,36,33,33,33,37,37,31,33,33,33,33,37,37,31,34,33,37,37,37,37,33,37,37,37,34,33,37,34,36,33,33,33,37,33,33,30,33,29,37,37,30,34,36,30,29,29,33,34,29,37,37,37,0,0,0,0,0,0,0,0,0,0,0,0,0,0,0,0,0,0,0,0,0,0,0,0,0,0,0,0,0,0,0,0,0,0,0,0,0,0,0,0,0,0,0,0,0,0,0,0,0,0,0,0,0,0,0,0,0,0,0,0,0,0,0,0],"split_type":[0,0,0,0,0,0,0,0,0,0,0,0,0,0,0,0,0,0,0,0,0,0,0,0,0,0,0,0,0,0,0,0,0,0,0,0,0,0,0,0,0,0,0,0,0,0,0,0,0,0,0,0,0,0,0,0,0,0,0,0,0,0,0,0,0,0,0,0,0,0,0,0,0,0,0,0,0,0,0,0,0,0,0,0,0,0,0,0,0,0,0,0,0,0,0,0,0,0,0,0,0,0,0,0,0,0,0,0,0,0,0,0,0,0,0,0,0,0,0,0,0,0,0,0,0,0,0],"sum_hessian":[5.05582E5,3.82425E5,1.23157E5,1.1793E5,2.64495E5,3.0295E4,9.2862E4,2.7509E4,9.0421E4,8.463E4,1.79865E5,1.2339E4,1.7956E4,4.7063E4,4.5799E4,2.6169E4,1.34E3,5.666E4,3.3761E4,4.3464E4,4.1166E4,5.2601E4,1.27264E5,9.652E3,2.687E3,5.16E2,1.744E4,2.6424E4,2.0639E4,1.8585E4,2.7214E4,1.7777E4,8.392E3,7.46E2,5.94E2,1.973E4,3.693E4,3.2197E4,1.564E3,6.366E3,3.7098E4,1.3919E4,2.7247E4,2.6281E4,2.632E4,8.5021E4,4.2243E4,3.138E3,6.514E3,2.402E3,2.85E2,2.05E2,3.11E2,1.4016E4,3.424E3,1.221E4,1.4214E4,9.839E3,1.08E4,1.2592E4,5.993E3,1.8197E4,9.017E3,9.423E3,8.354E3,7.045E3,1.347E3,2.4E1,7.22E2,4.03E2,1.91E2,3.996E3,1.5734E4,3.6557E4,3.73E2,1.8342E4,1.3855E4,1.33E2,1.431E3,5.624E3,7.42E2,1.4951E4,2.2147E4,1.411E3,1.2508E4,2.6287E4,9.6E2,1.8781E4,7.5E3,1.0924E4,1.5396E4,6.0908E4,2.4113E4,4.46E2,4.1797E4,1.55E2,2.983E3,4.748E3,1.766E3,6.93E2,1.709E3,1.55E2,1.3E2,1.97E2,8E0,2.58E2,5.3E1,3.28E2,1.3688E4,2.26E2,3.198E3,9.118E3,3.092E3,1.1146E4,3.068E3,9.65E3,1.89E2,4.747E3,6.053E3,1.0353E4,2.239E3,4.177E3,1.816E3,8.18E3,1.0017E4,7.696E3,1.321E3],"tree_param":{"num_deleted":"0","num_feature":"38","num_nodes":"127","size_leaf_vector":"1"}},{"base_weights":[1.6013283E-3,-5.230063E-1,1.6758988E0,5.2328587E-1,-9.887016E-1,1.1538035E0,1.8921753E0,-2.068058E0,1.3116019E0,-2.2668219E0,-3.891902E-1,1.4738392E0,8.8924646E-1,1.7063841E0,2.1338887E0,-2.2694218E0,1.9131104E0,1.0480559E0,1.7503612E0,-3.0933871E0,-1.4050736E0,5.122579E-1,-7.591908E-1,1.2150407E0,1.7408199E0,-1.301002E0,9.360001E-1,1.8935378E0,1.5352854E0,2.3267803E0,1.9492937E0,-2.6436408E0,-1.484959E0,1.6088564E0,2.312448E0,7.5913256E-1,1.296989E0,1.8145156E0,6.3024664E-1,-1.2393907E0,-3.4107807E0,-2.5149899E0,-8.4027624E-1,-1.1880774E0,2.2056372E0,-1.123581E0,-5.107173E-2,9.6323943E-1,1.3357722E0,1.7068967E0,2.5358706E0,-1.873361E0,-7.758081E-1,1.0599576E0,2.65735E-1,1.7695315E0,2.041829E0,1.403939E0,1.7278277E0,2.185446E0,2.5664356E0,1.7602278E0,2.1571314E0,-1.4718449E-1,-1.1520635E-1,-9.989468E-2,-5.9919536E-2,6.764092E-2,8.617605E-2,1.0731534E-1,1.318203E-1,3.8917404E-2,-9.223223E-2,5.7157047E-2,7.0884965E-2,8.100513E-2,1.0373157E-1,-6.378424E-2,3.7282623E-2,-4.798577E-2,-6.496911E-2,-2.3185764E-1,-1.2957855E-1,-1.848415E-2,-1.3795504E-1,-3.614744E-2,-2.0401676E-1,-7.078131E-2,-3.142663E-2,1.0265048E-1,1.2796865E-1,-4.2471595E-2,-9.090386E-2,1.4561573E-2,-2.5889963E-2,4.6218306E-2,6.325244E-2,6.0249504E-2,7.480126E-2,1.4895526E-2,8.576437E-2,1.525679E-1,1.2048636E-1,-1.0453099E-1,-7.110556E-2,-4.4378467E-2,-4.3902313E-3,5.421428E-2,-2.167188E-3,9.813108E-2,6.8034357E-3,7.8923605E-2,9.140744E-2,1.0994544E-1,9.7928025E-2,6.414759E-2,7.380798E-2,8.209189E-2,9.473234E-2,1.03412606E-1,1.1880274E-1,1.2123735E-1,1.348228E-1,6.436242E-2,8.899642E-2,1.03968896E-1,1.2039198E-1],"categories":[],"categories_nodes":[],"categories_segments":[],"categories_sizes":[],"default_left":[0,0,0,0,0,0,0,0,0,0,0,0,0,0,0,0,0,0,0,0,0,0,0,0,0,0,0,0,0,0,0,0,0,0,0,0,0,0,0,0,0,0,0,0,0,0,0,0,0,0,0,0,0,0,0,0,0,0,0,0,0,0,0,0,0,0,0,0,0,0,0,0,0,0,0,0,0,0,0,0,0,0,0,0,0,0,0,0,0,0,0,0,0,0,0,0,0,0,0,0,0,0,0,0,0,0,0,0,0,0,0,0,0,0,0,0,0,0,0,0,0,0,0,0,0,0,0],"id":6,"left_children":[1,3,5,7,9,11,13,15,17,19,21,23,25,27,29,31,33,35,37,39,41,43,45,47,49,51,53,55,57,59,61,63,65,67,69,71,73,75,77,79,81,83,85,87,89,91,93,95,97,99,101,103,105,107,109,111,113,115,117,119,121,123,125,-1,-1,-1,-1,-1,-1,-1,-1,-1,-1,-1,-1,-1,-1,-1,-1,-1,-1,-1,-1,-1,-1,-1,-1,-1,-1,-1,-1,-1,-1,-1,-1,-1,-1,-1,-1,-1,-1,-1,-1,-1,-1,-1,-1,-1,-1,-1,-1,-1,-1,-1,-1,-1,-1,-1,-1,-1,-1,-1,-1,-1,-1,-1,-1],"loss_changes":[4.4439738E5,1.8770953E5,1.3627406E4,2.4239081E5,2.0426902E5,2.9922188E3,3.8288438E3,2.2192E4,1.0518094E4,6.062397E4,6.0526582E4,1.1030977E3,1.9836855E3,1.5421875E3,1.315625E3,7.7295312E3,1.5784717E2,4.0869648E3,2.4518516E3,2.5560375E4,2.6122047E4,1.5205633E5,3.3198195E4,2.4557812E2,2.0758789E2,1.20024536E2,1.5745332E3,4.1978125E2,6.3502344E2,6.0803906E2,7.407656E2,1.8095625E3,1.2483262E3,1.9673218E1,2.4757568E1,1.3176943E3,5.651367E2,1.6291172E3,4.0803583E2,1.0510156E2,3.725397E4,7.3586562E3,1.0496635E4,3.3540117E3,1.4227969E3,1.6171719E4,6.984024E3,2.9561523E1,1.1300879E2,8.85957E1,1.290918E1,1.5596924E1,1.6202545E1,4.295293E2,6.5080884E2,1.3741406E2,1.3245703E2,1.2886914E2,1.4316797E2,2.495664E2,1.1674609E2,8.995508E1,1.7049219E2,0E0,0E0,0E0,0E0,0E0,0E0,0E0,0E0,0E0,0E0,0E0,0E0,0E0,0E0,0E0,0E0,0E0,0E0,0E0,0E0,0E0,0E0,0E0,0E0,0E0,0E0,0E0,0E0,0E0,0E0,0E0,0E0,0E0,0E0,0E0,0E0,0E0,0E0,0E0,0E0,0E0,0E0,0E0,0E0,0E0,0E0,0E0,0E0,0E0,0E0,0E0,0E0,0E0,0E0,0E0,0E0,0E0,0E0,0E0,0E0,0E0,0E0,0E0,0E0],"parents":[2147483647,0,0,1,1,2,2,3,3,4,4,5,5,6,6,7,7,8,8,9,9,10,10,11,11,12,12,13,13,14,14,15,15,16,16,17,17,18,18,19,19,20,20,21,21,22,22,23,23,24,24,25,25,26,26,27,27,28,28,29,29,30,30,31,31,32,32,33,33,34,34,35,35,36,36,37,37,38,38,39,39,40,40,41,41,42,42,43,43,44,44,45,45,46,46,47,47,48,48,49,49,50,50,51,51,52,52,53,53,54,54,55,55,56,56,57,57,58,58,59,59,60,60,61,61,62,62],"right_children":[2,4,6,8,10,12,14,16,18,20,22,24,26,28,30,32,34,36,38,40,42,44,46,48,50,52,54,56,58,60,62,64,66,68,70,72,74,76,78,80,82,84,86,88,90,92,94,96,98,100,102,104,106,108,110,112,114,116,118,120,122,124,126,-1,-1,-1,-1,-1,-1,-1,-1,-1,-1,-1,-1,-1,-1,-1,-1,-1,-1,-1,-1,-1,-1,-1,-1,-1,-1,-1,-1,-1,-1,-1,-1,-1,-1,-1,-1,-1,-1,-1,-1,-1,-1,-1,-1,-1,-1,-1,-1,-1,-1,-1,-1,-1,-1,-1,-1,-1,-1,-1,-1,-1,-1,-1,-1],"split_conditions":[2.5649493E0,1.03E2,3.583519E0,9.1E1,1.73E2,1.03E2,6.525229E4,7E2,1.3862944E0,1.0986123E0,2.59E2,4.5777645E4,1.11E2,1.03E2,1.03E2,1.0986123E0,1.609438E0,5.3843156E4,1.02E2,1.04E2,1.11E2,2.53E2,1.609438E0,3.554E3,1.2386013E5,5.363E3,3.01E2,3.9318256E0,4.0943446E0,4.204693E0,4.406719E0,7.1E1,7.1E1,7.1727734E4,1.9459101E0,1.02E2,1.0986123E0,6.3724266E4,2.3140002E4,3.975E3,1.22E2,1.04E2,1.72E2,1.0986123E0,7.286727E4,4.57E2,3.06E2,2E1,3.6202918E4,7.3E1,1E0,1.06E2,6.075E3,7E2,-0E0,4.154715E4,1E0,4.450256E4,4.454347E0,8.480736E4,8.480736E4,-0E0,4.9767337E0,-1.4718449E-1,-1.1520635E-1,-9.989468E-2,-5.9919536E-2,6.764092E-2,8.617605E-2,1.0731534E-1,1.318203E-1,3.8917404E-2,-9.223223E-2,5.7157047E-2,7.0884965E-2,8.100513E-2,1.0373157E-1,-6.378424E-2,3.7282623E-2,-4.798577E-2,-6.496911E-2,-2.3185764E-1,-1.2957855E-1,-1.848415E-2,-1.3795504E-1,-3.614744E-2,-2.0401676E-1,-7.078131E-2,-3.142663E-2,1.0265048E-1,1.2796865E-1,-4.2471595E-2,-9.090386E-2,1.4561573E-2,-2.5889963E-2,4.6218306E-2,6.325244E-2,6.0249504E-2,7.480126E-2,1.4895526E-2,8.576437E-2,1.525679E-1,1.2048636E-1,-1.0453099E-1,-7.110556E-2,-4.4378467E-2,-4.3902313E-3,5.421428E-2,-2.167188E-3,9.813108E-2,6.8034357E-3,7.8923605E-2,9.140744E-2,1.0994544E-1,9.7928025E-2,6.414759E-2,7.380798E-2,8.209189E-2,9.473234E-2,1.03412606E-1,1.1880274E-1,1.2123735E-1,1.348228E-1,6.436242E-2,8.899642E-2,1.03968896E-1,1.2039198E-1],"split_indices":[37,33,37,33,33,33,35,31,37,37,33,35,33,33,33,37,37,35,33,33,33,33,37,34,35,34,33,37,37,37,37,33,33,11,37,33,37,35,35,34,33,33,33,37,35,33,33,30,35,33,0,31,34,31,30,35,0,35,37,35,35,30,37,0,0,0,0,0,0,0,0,0,0,0,0,0,0,0,0,0,0,0,0,0,0,0,0,0,0,0,0,0,0,0,0,0,0,0,0,0,0,0,0,0,0,0,0,0,0,0,0,0,0,0,0,0,0,0,0,0,0,0,0,0,0,0,0],"split_type":[0,0,0,0,0,0,0,0,0,0,0,0,0,0,0,0,0,0,0,0,0,0,0,0,0,0,0,0,0,0,0,0,0,0,0,0,0,0,0,0,0,0,0,0,0,0,0,0,0,0,0,0,0,0,0,0,0,0,0,0,0,0,0,0,0,0,0,0,0,0,0,0,0,0,0,0,0,0,0,0,0,0,0,0,0,0,0,0,0,0,0,0,0,0,0,0,0,0,0,0,0,0,0,0,0,0,0,0,0,0,0,0,0,0,0,0,0,0,0,0,0,0,0,0,0,0,0],"sum_hessian":[5.05944E5,3.85238E5,1.20706E5,1.18654E5,2.66584E5,3.5358E4,8.5348E4,2.7676E4,9.0978E4,8.5117E4,1.81467E5,1.5999E4,1.9359E4,4.8261E4,3.7087E4,2.6344E4,1.332E3,5.684E4,3.4138E4,4.3444E4,4.1673E4,5.2808E4,1.28659E5,8.127E3,7.872E3,4.04E2,1.8955E4,2.3044E4,2.5217E4,1.813E4,1.8957E4,1.7834E4,8.51E3,7.59E2,5.73E2,2.6309E4,3.0531E4,3.2288E4,1.85E3,6.351E3,3.7093E4,1.4053E4,2.762E4,2.635E4,2.6458E4,8.4946E4,4.3713E4,2.637E3,5.49E3,7.553E3,3.19E2,1.92E2,2.12E2,1.5996E4,2.959E3,1.2557E4,1.0487E4,1.4996E4,1.0221E4,1.1411E4,6.719E3,9.932E3,9.025E3,9.463E3,8.371E3,3.048E3,5.462E3,2.39E2,5.2E2,3.84E2,1.89E2,2.6117E4,1.92E2,1.3428E4,1.7103E4,1.8482E4,1.3806E4,1.05E2,1.745E3,1.125E3,5.226E3,1.4853E4,2.224E4,1.436E3,1.2617E4,2.6656E4,9.64E2,1.8731E4,7.619E3,1.8488E4,7.97E3,6.0906E4,2.404E4,2.5218E4,1.8495E4,2.34E3,2.97E2,3.028E3,2.462E3,4.5E1,7.508E3,5.8E1,2.61E2,1.27E2,6.5E1,1.82E2,3E1,1.5651E4,3.45E2,2.09E2,2.75E3,2.955E3,9.602E3,3.624E3,6.863E3,5.613E3,9.383E3,6.752E3,3.469E3,7.074E3,4.337E3,3.225E3,3.494E3,4E2,9.532E3,6.896E3,2.129E3],"tree_param":{"num_deleted":"0","num_feature":"38","num_nodes":"127","size_leaf_vector":"1"}},{"base_weights":[-2.6476907E-3,-5.182801E-1,1.5409703E0,4.9139988E-1,-9.7118783E-1,8.7511307E-1,1.7494218E0,-1.981243E0,1.2456865E0,-2.2037458E0,-3.8992265E-1,1.2879927E0,6.463512E-1,1.5010984E0,1.9352727E0,-2.1710556E0,1.8119484E0,9.9509025E-1,1.6692866E0,-2.9502394E0,-1.3994982E0,4.850032E-1,-7.5851154E-1,1.0348754E0,1.6073971E0,-1.2781827E0,7.165478E-1,1.669289E0,1.3458747E0,2.111259E0,1.7636192E0,-2.5210423E0,-1.4359384E0,1.533264E0,2.16768E0,7.5526315E-1,1.2584943E0,1.721639E0,3.884133E-1,-1.1733626E0,-3.2573416E0,-2.4424205E0,-8.5736704E-1,-1.1293999E0,2.0884023E0,-1.0651946E0,-1.0661516E-1,8.770063E-1,1.1785158E0,1.5345346E0,2.1627672E0,-1.8483148E0,-6.6068256E-1,8.70139E-1,1.8523115E-1,1.5554222E0,1.8417667E0,1.2259392E0,1.5594085E0,1.9764518E0,2.343794E0,1.5990592E0,2.0092492E0,-1.4052711E-1,-1.0959651E-1,-9.490049E-2,-5.8767915E-2,1.0094768E-1,7.3915236E-2,1.0132336E-1,1.2366634E-1,3.8604714E-2,-9.055845E-2,6.884774E-2,5.4097682E-2,7.7533446E-2,9.936914E-2,-6.3283004E-2,2.7485698E-2,-6.1470788E-2,-3.70047E-2,-2.208379E-1,-1.2387498E-1,-1.7764868E-2,-1.3425246E-1,-3.7178412E-2,-1.9489661E-1,-6.703084E-2,-2.9666323E-2,9.741979E-2,1.2081178E-1,-4.039296E-2,-8.6028494E-2,1.8708055E-1,-7.3612453E-3,3.0976852E-2,4.800983E-2,5.404338E-2,6.554187E-2,2.6503235E-2,7.759341E-2,6.425857E-2,1.112659E-1,-3.1683277E-2,-9.77058E-2,-4.2005163E-2,-8.21363E-3,-2.2546051E-2,4.5142762E-2,1.2230237E-1,2.0839334E-3,6.643936E-2,8.071073E-2,8.796338E-2,1.0003444E-1,5.6924578E-2,6.572109E-2,7.541912E-2,9.15749E-2,9.4858736E-2,1.11497834E-1,1.10772364E-1,1.2706828E-1,7.2479464E-2,8.362645E-2,9.685422E-2,1.13745786E-1],"categories":[],"categories_nodes":[],"categories_segments":[],"categories_sizes":[],"default_left":[0,0,0,0,0,0,0,0,0,0,0,0,0,0,0,0,0,0,0,0,0,0,0,0,0,0,0,0,0,0,0,0,0,0,0,0,0,0,0,0,0,0,0,0,0,0,0,0,0,0,0,0,0,0,0,0,0,0,0,0,0,0,0,0,0,0,0,0,0,0,0,0,0,0,0,0,0,0,0,0,0,0,0,0,0,0,0,0,0,0,0,0,0,0,0,0,0,0,0,0,0,0,0,0,0,0,0,0,0,0,0,0,0,0,0,0,0,0,0,0,0,0,0,0,0,0,0],"id":7,"left_children":[1,3,5,7,9,11,13,15,17,19,21,23,25,27,29,31,33,35,37,39,41,43,45,47,49,51,53,55,57,59,61,63,65,67,69,71,73,75,77,79,81,83,85,87,89,91,93,95,97,99,101,103,105,107,109,111,113,115,117,119,121,123,125,-1,-1,-1,-1,-1,-1,-1,-1,-1,-1,-1,-1,-1,-1,-1,-1,-1,-1,-1,-1,-1,-1,-1,-1,-1,-1,-1,-1,-1,-1,-1,-1,-1,-1,-1,-1,-1,-1,-1,-1,-1,-1,-1,-1,-1,-1,-1,-1,-1,-1,-1,-1,-1,-1,-1,-1,-1,-1,-1,-1,-1,-1,-1,-1],"loss_changes":[4.0246434E5,1.7332969E5,1.7571938E4,2.1891262E5,1.8746481E5,2.8503574E3,4.446875E3,1.9757766E4,9.545219E3,5.0337938E4,5.7341973E4,8.6814453E2,2.6254995E3,1.0751562E3,1.6617812E3,6.7184844E3,1.2597705E2,3.5687305E3,2.2406953E3,2.3725812E4,2.2821102E4,1.3643105E5,2.5011656E4,1.3497754E2,1.887666E2,2.3933484E2,1.5294287E3,3.858125E2,5.477383E2,8.4833594E2,1.1250938E3,1.67975E3,1.01249023E3,1.6338501E1,1.9226074E1,1.2791152E3,5.614531E2,1.4556797E3,3.5120343E2,1.545664E2,3.3512906E4,6.990039E3,9.187426E3,2.9727148E3,1.2085625E3,1.4347211E4,6.2554287E3,6.063379E1,3.8942383E1,7.223535E1,2.6926025E1,4.412439E1,2.9153412E1,6.28916E2,1.3643641E3,1.566289E2,9.930078E1,1.0468945E2,1.04072266E2,3.4182812E2,2.4708984E2,1.809414E2,2.0985938E2,0E0,0E0,0E0,0E0,0E0,0E0,0E0,0E0,0E0,0E0,0E0,0E0,0E0,0E0,0E0,0E0,0E0,0E0,0E0,0E0,0E0,0E0,0E0,0E0,0E0,0E0,0E0,0E0,0E0,0E0,0E0,0E0,0E0,0E0,0E0,0E0,0E0,0E0,0E0,0E0,0E0,0E0,0E0,0E0,0E0,0E0,0E0,0E0,0E0,0E0,0E0,0E0,0E0,0E0,0E0,0E0,0E0,0E0,0E0,0E0,0E0,0E0,0E0,0E0],"parents":[2147483647,0,0,1,1,2,2,3,3,4,4,5,5,6,6,7,7,8,8,9,9,10,10,11,11,12,12,13,13,14,14,15,15,16,16,17,17,18,18,19,19,20,20,21,21,22,22,23,23,24,24,25,25,26,26,27,27,28,28,29,29,30,30,31,31,32,32,33,33,34,34,35,35,36,36,37,37,38,38,39,39,40,40,41,41,42,42,43,43,44,44,45,45,46,46,47,47,48,48,49,49,50,50,51,51,52,52,53,53,54,54,55,55,56,56,57,57,58,58,59,59,60,60,61,61,62,62],"right_children":[2,4,6,8,10,12,14,16,18,20,22,24,26,28,30,32,34,36,38,40,42,44,46,48,50,52,54,56,58,60,62,64,66,68,70,72,74,76,78,80,82,84,86,88,90,92,94,96,98,100,102,104,106,108,110,112,114,116,118,120,122,124,126,-1,-1,-1,-1,-1,-1,-1,-1,-1,-1,-1,-1,-1,-1,-1,-1,-1,-1,-1,-1,-1,-1,-1,-1,-1,-1,-1,-1,-1,-1,-1,-1,-1,-1,-1,-1,-1,-1,-1,-1,-1,-1,-1,-1,-1,-1,-1,-1,-1,-1,-1,-1,-1,-1,-1,-1,-1,-1,-1,-1,-1,-1,-1,-1],"split_conditions":[2.3978953E0,1.03E2,3.4011974E0,9.1E1,1.73E2,1.03E2,5.7460824E4,7E2,1.3862944E0,1.0986123E0,2.59E2,4.5777645E4,1.11E2,1.03E2,1.03E2,1.0986123E0,1.3862944E0,5.8027133E4,1.02E2,1.04E2,1.11E2,2.53E2,1.609438E0,3.0910425E0,8.480736E4,5.363E3,3.01E2,3.871201E0,4.0253515E0,4.158883E0,4.3820267E0,7.1E1,7.1E1,-1.1534429E5,1.9459101E0,1.02E2,1.03E2,6.6017484E4,2.3140002E4,6.4805746E-1,1.22E2,1.04E2,1.72E2,1.0986123E0,7.286727E4,4.57E2,-0E0,2.756E3,3.6202918E4,7.3E1,7.3E1,5.463374E-1,6.075E3,4.8625264E-1,-0E0,3.6202918E4,1E0,4.281E3,4.59512E0,8.480736E4,8.480736E4,3.871201E0,4.9767337E0,-1.4052711E-1,-1.0959651E-1,-9.490049E-2,-5.8767915E-2,1.0094768E-1,7.3915236E-2,1.0132336E-1,1.2366634E-1,3.8604714E-2,-9.055845E-2,6.884774E-2,5.4097682E-2,7.7533446E-2,9.936914E-2,-6.3283004E-2,2.7485698E-2,-6.1470788E-2,-3.70047E-2,-2.208379E-1,-1.2387498E-1,-1.7764868E-2,-1.3425246E-1,-3.7178412E-2,-1.9489661E-1,-6.703084E-2,-2.9666323E-2,9.741979E-2,1.2081178E-1,-4.039296E-2,-8.6028494E-2,1.8708055E-1,-7.3612453E-3,3.0976852E-2,4.800983E-2,5.404338E-2,6.554187E-2,2.6503235E-2,7.759341E-2,6.425857E-2,1.112659E-1,-3.1683277E-2,-9.77058E-2,-4.2005163E-2,-8.21363E-3,-2.2546051E-2,4.5142762E-2,1.2230237E-1,2.0839334E-3,6.643936E-2,8.071073E-2,8.796338E-2,1.0003444E-1,5.6924578E-2,6.572109E-2,7.541912E-2,9.15749E-2,9.4858736E-2,1.11497834E-1,1.10772364E-1,1.2706828E-1,7.2479464E-2,8.362645E-2,9.685422E-2,1.13745786E-1],"split_indices":[37,33,37,33,33,33,35,31,37,37,33,35,33,33,33,37,37,35,33,33,33,33,37,37,35,34,33,37,37,37,37,33,33,29,37,33,31,35,35,36,33,33,33,37,35,33,30,34,35,33,33,36,34,36,30,35,10,34,37,35,35,37,37,0,0,0,0,0,0,0,0,0,0,0,0,0,0,0,0,0,0,0,0,0,0,0,0,0,0,0,0,0,0,0,0,0,0,0,0,0,0,0,0,0,0,0,0,0,0,0,0,0,0,0,0,0,0,0,0,0,0,0,0,0,0,0,0],"split_type":[0,0,0,0,0,0,0,0,0,0,0,0,0,0,0,0,0,0,0,0,0,0,0,0,0,0,0,0,0,0,0,0,0,0,0,0,0,0,0,0,0,0,0,0,0,0,0,0,0,0,0,0,0,0,0,0,0,0,0,0,0,0,0,0,0,0,0,0,0,0,0,0,0,0,0,0,0,0,0,0,0,0,0,0,0,0,0,0,0,0,0,0,0,0,0,0,0,0,0,0,0,0,0,0,0,0,0,0,0,0,0,0,0,0,0,0,0,0,0,0,0,0,0,0,0,0,0],"sum_hessian":[5.05645E5,3.79033E5,1.26612E5,1.17372E5,2.61661E5,3.0188E4,9.6424E4,2.7435E4,8.9937E4,8.3852E4,1.77809E5,1.0761E4,1.9427E4,4.1279E4,5.5145E4,2.6128E4,1.307E3,5.651E4,3.3427E4,4.3486E4,4.0366E4,5.2704E4,1.25105E5,6.006E3,4.755E3,6.83E2,1.8744E4,1.9807E4,2.1472E4,2.7223E4,2.7922E4,1.7699E4,8.429E3,7.36E2,5.71E2,2.9581E4,2.6929E4,3.2114E4,1.313E3,6.409E3,3.7077E4,1.3805E4,2.6561E4,2.6262E4,2.6442E4,8.5079E4,4.0026E4,2.865E3,3.141E3,4.207E3,5.48E2,3.54E2,3.29E2,1.454E4,4.204E3,1.1937E4,7.87E3,1.3754E4,7.718E3,1.7239E4,9.984E3,1.6725E4,1.1197E4,9.412E3,8.287E3,3.037E3,5.392E3,7.1E1,6.65E2,3.96E2,1.75E2,2.9389E4,1.92E2,1.6111E4,1.0818E4,1.9546E4,1.2568E4,1.16E2,1.197E3,5.673E3,7.36E2,1.4908E4,2.2169E4,1.438E3,1.2367E4,2.5604E4,9.57E2,1.8838E4,7.424E3,1.8534E4,7.908E3,6.1093E4,2.3986E4,4.17E2,3.9609E4,7.02E2,2.163E3,1.813E3,1.328E3,7.2E1,4.135E3,3.8E1,5.1E2,2.9E1,3.25E2,2.41E2,8.8E1,3.51E2,1.4189E4,2.5E2,3.954E3,2.464E3,9.473E3,5.189E3,2.681E3,6.925E3,6.829E3,6.505E3,1.213E3,1.3139E4,4.1E3,6.06E3,3.924E3,5.519E3,1.1206E4,8.812E3,2.385E3],"tree_param":{"num_deleted":"0","num_feature":"38","num_nodes":"127","size_leaf_vector":"1"}},{"base_weights":[-2.279467E-4,-4.8849326E-1,1.4638149E0,4.7124204E-1,-9.22241E-1,8.3048785E-1,1.6615249E0,-1.8723569E0,1.1844093E0,-2.0902913E0,-3.7216616E-1,1.2228229E0,6.125232E-1,1.4864188E0,1.8542393E0,-2.0530965E0,1.7211847E0,9.4835716E-1,1.5824696E0,-2.802852E0,-1.3205757E0,4.5510387E-1,-7.209753E-1,1.1242092E0,1.577342E0,-1.2260417E0,6.817844E-1,1.6630235E0,1.2631211E0,2.081762E0,1.6978393E0,-2.3803196E0,-1.3628813E0,1.4493263E0,2.067499E0,1.1799952E0,8.143316E-1,1.6312203E0,3.8321152E-1,-1.1309632E0,-3.0881872E0,-2.3051932E0,-8.1082606E-1,-1.0734932E0,1.9888601E0,-4.8522657E-1,-1.4862976E0,9.822932E-1,1.2583555E0,1.4889694E0,2.2424176E0,-9.916463E-2,-8.035339E-1,8.2914406E-1,1.7583543E-1,1.5415102E0,1.7652221E0,1.1722171E0,1.360046E0,1.999528E0,2.3103733E0,1.5892689E0,1.9574445E0,-1.3225542E-1,-1.0401894E-1,-9.2030644E-2,-5.5048663E-2,2.2094361E-2,7.403779E-2,9.647166E-2,1.1749127E-1,3.566454E-2,6.45445E-2,4.1737366E-2,-5.6914926E-2,7.719262E-2,1.011306E-1,-5.128448E-2,2.6916588E-2,-5.960056E-2,-3.25034E-2,-2.093338E-1,-1.17426805E-1,-1.7894005E-2,-1.2654346E-1,-3.5023864E-2,-1.8403827E-1,-6.370226E-2,-2.8258083E-2,1.1174249E-1,9.0847194E-2,-3.9500732E-2,1.275631E-1,-9.7181916E-2,-5.1850654E-2,7.390609E-2,4.6266627E-2,8.709508E-2,6.1435997E-2,6.3263066E-2,7.706821E-2,1.0002818E-1,1.17240004E-1,-1.7369347E-2,-5.5132568E-2,-2.0646185E-2,4.2879354E-2,1.12502396E-1,2.3521634E-3,7.6691195E-2,1.2543595E-1,8.6069435E-2,9.590389E-2,5.882863E-2,-2.1286067E-2,4.8251063E-2,6.8627834E-2,9.787602E-2,1.07953764E-1,1.1256086E-1,1.2602836E-1,7.517783E-2,8.392252E-2,9.5000766E-2,1.1236911E-1],"categories":[],"categories_nodes":[],"categories_segments":[],"categories_sizes":[],"default_left":[0,0,0,0,0,0,0,0,0,0,0,0,0,0,0,0,0,0,0,0,0,0,0,0,0,0,0,0,0,0,0,0,0,0,0,0,0,0,0,0,0,0,0,0,0,0,0,0,0,0,0,0,0,0,0,0,0,0,0,0,0,0,0,0,0,0,0,0,0,0,0,0,0,0,0,0,0,0,0,0,0,0,0,0,0,0,0,0,0,0,0,0,0,0,0,0,0,0,0,0,0,0,0,0,0,0,0,0,0,0,0,0,0,0,0,0,0,0,0,0,0,0,0,0,0],"id":8,"left_children":[1,3,5,7,9,11,13,15,17,19,21,23,25,27,29,31,33,35,37,39,41,43,45,47,49,51,53,55,57,59,61,63,65,67,69,71,73,75,77,79,81,83,85,87,89,91,93,95,97,99,101,-1,103,105,107,109,111,113,115,117,119,121,123,-1,-1,-1,-1,-1,-1,-1,-1,-1,-1,-1,-1,-1,-1,-1,-1,-1,-1,-1,-1,-1,-1,-1,-1,-1,-1,-1,-1,-1,-1,-1,-1,-1,-1,-1,-1,-1,-1,-1,-1,-1,-1,-1,-1,-1,-1,-1,-1,-1,-1,-1,-1,-1,-1,-1,-1,-1,-1,-1,-1,-1,-1],"loss_changes":[3.6167316E5,1.5794367E5,1.58425625E4,1.9739188E5,1.6789716E5,2.573588E3,3.2510312E3,1.789975E4,8.50632E3,4.5881906E4,5.126379E4,3.7381738E2,2.4655986E3,1.9902422E3,1.6295156E3,5.9216797E3,1.20927734E2,1.7635586E3,1.9697188E3,2.0720531E4,2.0184578E4,1.2353369E5,2.2545559E4,1.5874023E2,1.3364404E2,2.2304858E2,1.3905293E3,3.4728125E2,1.9480469E2,3.4640625E2,7.634297E2,1.4073984E3,1.053708E3,2.26792E1,1.7568604E1,1.0770391E3,1.4365156E3,1.1040312E3,2.8855112E2,1.8502246E2,3.0140531E4,6.0277812E3,8.390014E3,2.6894766E3,1.1077891E3,8.8419945E4,6.0444336E3,1.14017334E2,5.949756E1,2.1985352E1,1.6097412E0,0E0,6.127997E1,5.1074902E2,1.1240663E3,9.162305E1,9.895703E1,8.078906E1,5.1791016E1,8.755859E1,5.5257812E1,1.4385547E2,1.2883789E2,0E0,0E0,0E0,0E0,0E0,0E0,0E0,0E0,0E0,0E0,0E0,0E0,0E0,0E0,0E0,0E0,0E0,0E0,0E0,0E0,0E0,0E0,0E0,0E0,0E0,0E0,0E0,0E0,0E0,0E0,0E0,0E0,0E0,0E0,0E0,0E0,0E0,0E0,0E0,0E0,0E0,0E0,0E0,0E0,0E0,0E0,0E0,0E0,0E0,0E0,0E0,0E0,0E0,0E0,0E0,0E0,0E0,0E0,0E0,0E0,0E0,0E0],"parents":[2147483647,0,0,1,1,2,2,3,3,4,4,5,5,6,6,7,7,8,8,9,9,10,10,11,11,12,12,13,13,14,14,15,15,16,16,17,17,18,18,19,19,20,20,21,21,22,22,23,23,24,24,25,25,26,26,27,27,28,28,29,29,30,30,31,31,32,32,33,33,34,34,35,35,36,36,37,37,38,38,39,39,40,40,41,41,42,42,43,43,44,44,45,45,46,46,47,47,48,48,49,49,50,50,52,52,53,53,54,54,55,55,56,56,57,57,58,58,59,59,60,60,61,61,62,62],"right_children":[2,4,6,8,10,12,14,16,18,20,22,24,26,28,30,32,34,36,38,40,42,44,46,48,50,52,54,56,58,60,62,64,66,68,70,72,74,76,78,80,82,84,86,88,90,92,94,96,98,100,102,-1,104,106,108,110,112,114,116,118,120,122,124,-1,-1,-1,-1,-1,-1,-1,-1,-1,-1,-1,-1,-1,-1,-1,-1,-1,-1,-1,-1,-1,-1,-1,-1,-1,-1,-1,-1,-1,-1,-1,-1,-1,-1,-1,-1,-1,-1,-1,-1,-1,-1,-1,-1,-1,-1,-1,-1,-1,-1,-1,-1,-1,-1,-1,-1,-1,-1,-1,-1,-1,-1],"split_conditions":[2.3978953E0,1.03E2,3.4011974E0,1E2,1.73E2,1.03E2,4.0253515E0,7E2,1.3862944E0,1.0986123E0,2.59E2,6.340766E-1,1.11E2,1.03E2,1.03E2,1.0986123E0,1.3862944E0,7.2E1,1.02E2,1.04E2,1.11E2,2.53E2,4.57E2,3.739E3,2.31E2,1.9E1,3.01E2,3.7376697E0,3.7612002E0,4.356709E0,4.59512E0,7.1E1,7.1E1,1.0986123E0,1.7917595E0,3.818E3,1.02E2,1.7917595E0,1.825E3,6.4805746E-1,1.22E2,1.04E2,1.72E2,1.0986123E0,2.54E2,4.56E2,1.0986123E0,5E0,1.02E2,4.5E1,2.944439E0,-9.916463E-2,6.6E1,4.8625264E-1,-0E0,6.701742E-1,1.90784E5,4.56E2,4.9473685E-1,2.5119008E5,4.59512E0,4.276666E0,5.187386E0,-1.3225542E-1,-1.0401894E-1,-9.2030644E-2,-5.5048663E-2,2.2094361E-2,7.403779E-2,9.647166E-2,1.1749127E-1,3.566454E-2,6.45445E-2,4.1737366E-2,-5.6914926E-2,7.719262E-2,1.011306E-1,-5.128448E-2,2.6916588E-2,-5.960056E-2,-3.25034E-2,-2.093338E-1,-1.17426805E-1,-1.7894005E-2,-1.2654346E-1,-3.5023864E-2,-1.8403827E-1,-6.370226E-2,-2.8258083E-2,1.1174249E-1,9.0847194E-2,-3.9500732E-2,1.275631E-1,-9.7181916E-2,-5.1850654E-2,7.390609E-2,4.6266627E-2,8.709508E-2,6.1435997E-2,6.3263066E-2,7.706821E-2,1.0002818E-1,1.17240004E-1,-1.7369347E-2,-5.5132568E-2,-2.0646185E-2,4.2879354E-2,1.12502396E-1,2.3521634E-3,7.6691195E-2,1.2543595E-1,8.6069435E-2,9.590389E-2,5.882863E-2,-2.1286067E-2,4.8251063E-2,6.8627834E-2,9.787602E-2,1.07953764E-1,1.1256086E-1,1.2602836E-1,7.517783E-2,8.392252E-2,9.5000766E-2,1.1236911E-1],"split_indices":[37,33,37,33,33,33,37,31,37,37,33,36,33,33,33,37,37,31,33,33,33,33,33,34,31,31,33,37,37,37,37,33,33,37,37,34,33,37,34,36,33,33,33,37,33,33,37,31,33,31,37,0,31,36,30,36,29,33,36,29,37,37,37,0,0,0,0,0,0,0,0,0,0,0,0,0,0,0,0,0,0,0,0,0,0,0,0,0,0,0,0,0,0,0,0,0,0,0,0,0,0,0,0,0,0,0,0,0,0,0,0,0,0,0,0,0,0,0,0,0,0,0,0,0,0],"split_type":[0,0,0,0,0,0,0,0,0,0,0,0,0,0,0,0,0,0,0,0,0,0,0,0,0,0,0,0,0,0,0,0,0,0,0,0,0,0,0,0,0,0,0,0,0,0,0,0,0,0,0,0,0,0,0,0,0,0,0,0,0,0,0,0,0,0,0,0,0,0,0,0,0,0,0,0,0,0,0,0,0,0,0,0,0,0,0,0,0,0,0,0,0,0,0,0,0,0,0,0,0,0,0,0,0,0,0,0,0,0,0,0,0,0,0,0,0,0,0,0,0,0,0,0,0],"sum_hessian":[5.05947E5,3.79412E5,1.26535E5,1.18099E5,2.61313E5,3.0105E4,9.643E4,2.7553E4,9.0546E4,8.3661E4,1.77652E5,1.075E4,1.9355E4,5.0528E4,4.5902E4,2.6234E4,1.319E3,5.6842E4,3.3704E4,4.3442E4,4.0219E4,5.2689E4,1.24963E5,8.414E3,2.336E3,7.02E2,1.8653E4,2.821E4,2.2318E4,1.8694E4,2.7208E4,1.7795E4,8.439E3,7.42E2,5.77E2,2.0831E4,3.6011E4,3.2387E4,1.317E3,6.334E3,3.7108E4,1.3718E4,2.6501E4,2.6389E4,2.63E4,9.5536E4,2.9427E4,4.093E3,4.321E3,2.065E3,2.71E2,2.5E2,4.52E2,1.4445E4,4.208E3,1.2895E4,1.5315E4,1.1524E4,1.0794E4,1.3756E4,4.938E3,1.919E4,8.018E3,9.447E3,8.348E3,2.986E3,5.453E3,2.3E1,7.19E2,3.93E2,1.84E2,4.001E3,1.683E4,3.5639E4,3.72E2,2.6481E4,5.906E3,1.3E2,1.187E3,5.619E3,7.15E2,1.493E4,2.2178E4,1.425E3,1.2293E4,2.5521E4,9.8E2,1.8922E4,7.467E3,1.0814E4,1.5486E4,8.6822E4,8.714E3,1.4581E4,1.4846E4,4.19E2,3.674E3,2.46E2,4.075E3,3.97E2,1.668E3,8.7E1,1.84E2,1.8E2,2.72E2,3.23E2,1.4122E4,2.45E2,3.963E3,1.2796E4,9.9E1,1.1912E4,3.403E3,1.1493E4,3.1E1,3.34E2,1.046E4,1.09E4,2.856E3,3.863E3,1.075E3,9.795E3,9.395E3,6.699E3,1.319E3],"tree_param":{"num_deleted":"0","num_feature":"38","num_nodes":"125","size_leaf_vector":"1"}},{"base_weights":[1.0045224E-3,-4.7496954E-1,1.360463E0,4.4477722E-1,-8.938456E-1,6.839688E-1,1.558798E0,-1.7853187E0,1.123272E0,-2.008104E0,-3.665707E-1,1.1137835E0,5.0983554E-1,1.3259511E0,1.742324E0,-1.9589686E0,1.6330814E0,8.9672303E-1,1.509258E0,-2.4167635E0,-8.74427E-1,4.3896344E-1,-7.134351E-1,8.6522824E-1,1.4653928E0,-1.1133031E0,5.7789177E-1,1.4732822E0,1.1884204E0,1.9030039E0,1.5851396E0,-2.2731948E0,-1.290685E0,1.3833413E0,1.9638927E0,6.697952E-1,1.1458106E0,1.5505797E0,2.3559019E-1,-2.2225263E0,-4.4505215E0,-1.8832027E0,-4.9746498E-1,-1.0193038E0,1.8905305E0,-9.800301E-1,-1.0143454E-1,5.414328E-1,9.3296283E-1,1.376078E0,1.991788E0,-1.8674588E0,-6.8131477E-1,7.3347235E-1,1.2691203E-1,1.3386619E0,1.6232876E0,1.0579568E0,1.369218E0,1.7967442E0,2.1563935E0,1.437266E0,1.813253E0,-1.2679406E-1,-9.895854E-2,-7.162898E-2,-2.5514359E-2,2.2356598E-2,7.072628E-2,9.196358E-2,1.1137626E-1,-4.5456942E-2,3.4772977E-2,-2.4481056E-2,5.7901163E-2,6.901302E-2,8.904522E-2,-6.4239256E-2,2.0868529E-2,-1.4682023E-1,-7.239013E-2,-2.2896357E-1,-1.800702E-1,-1.4339726E-1,-8.3098315E-2,-2.2668397E-2,-1.6567422E-1,-6.04673E-2,-2.693629E-2,8.7818235E-2,1.1079085E-1,-6.616226E-2,-2.8437773E-2,1.1190936E-2,-2.6509378E-2,1.8553877E-2,3.6766298E-2,3.7993725E-2,5.2026015E-2,1.6654751E-3,7.05458E-2,1.1665286E-1,8.967655E-2,-9.566434E-2,-4.4977143E-2,-1.152518E-2,-5.19395E-2,-2.8768485E-2,3.820389E-2,1.2691006E-1,2.5199773E-4,5.6278832E-2,7.0567235E-2,7.749803E-2,8.930018E-2,4.8872292E-2,5.7245847E-2,6.6120796E-2,8.063819E-2,8.620458E-2,1.0351776E-1,1.0371669E-1,1.2411437E-1,6.375107E-2,7.513835E-2,8.5346155E-2,9.872646E-2],"categories":[],"categories_nodes":[],"categories_segments":[],"categories_sizes":[],"default_left":[0,0,0,0,0,0,0,0,0,0,0,0,0,0,0,0,0,0,0,0,0,0,0,0,0,0,0,0,0,0,0,0,0,0,0,0,0,0,0,0,0,0,0,0,0,0,0,0,0,0,0,0,0,0,0,0,0,0,0,0,0,0,0,0,0,0,0,0,0,0,0,0,0,0,0,0,0,0,0,0,0,0,0,0,0,0,0,0,0,0,0,0,0,0,0,0,0,0,0,0,0,0,0,0,0,0,0,0,0,0,0,0,0,0,0,0,0,0,0,0,0,0,0,0,0,0,0],"id":9,"left_children":[1,3,5,7,9,11,13,15,17,19,21,23,25,27,29,31,33,35,37,39,41,43,45,47,49,51,53,55,57,59,61,63,65,67,69,71,73,75,77,79,81,83,85,87,89,91,93,95,97,99,101,103,105,107,109,111,113,115,117,119,121,123,125,-1,-1,-1,-1,-1,-1,-1,-1,-1,-1,-1,-1,-1,-1,-1,-1,-1,-1,-1,-1,-1,-1,-1,-1,-1,-1,-1,-1,-1,-1,-1,-1,-1,-1,-1,-1,-1,-1,-1,-1,-1,-1,-1,-1,-1,-1,-1,-1,-1,-1,-1,-1,-1,-1,-1,-1,-1,-1,-1,-1,-1,-1,-1,-1],"loss_changes":[3.2764894E5,1.444914E5,1.7617156E4,1.7757881E5,1.5139722E5,2.2275576E3,4.336578E3,1.6254359E4,7.8669453E3,3.8344812E4,4.8874652E4,7.486045E2,2.341336E3,9.049531E2,1.4307188E3,5.4678438E3,1.0633301E2,3.204293E3,1.7509297E3,2.4023125E4,8.339287E3,1.1145009E5,1.9948914E4,1.09687744E2,1.6396582E2,2.7636853E2,1.4268105E3,4.3383594E2,5.445039E2,7.5159375E2,9.654844E2,1.3631562E3,9.220449E2,2.1311401E1,1.4124512E1,1.2031104E3,5.4051953E2,1.2616875E3,2.898135E2,3.0711094E4,5.624375E2,1.2945391E3,1.9809983E3,2.397959E3,1.1472578E3,1.2021141E4,5.1741455E3,2.8452316E1,7.6457275E1,1.4206445E2,3.0111938E1,1.1748535E1,8.7301315E1,6.061704E2,1.5331401E3,1.7460742E2,1.1876953E2,9.287012E1,1.0816211E2,3.8935547E2,2.160664E2,1.8296484E2,1.898164E2,0E0,0E0,0E0,0E0,0E0,0E0,0E0,0E0,0E0,0E0,0E0,0E0,0E0,0E0,0E0,0E0,0E0,0E0,0E0,0E0,0E0,0E0,0E0,0E0,0E0,0E0,0E0,0E0,0E0,0E0,0E0,0E0,0E0,0E0,0E0,0E0,0E0,0E0,0E0,0E0,0E0,0E0,0E0,0E0,0E0,0E0,0E0,0E0,0E0,0E0,0E0,0E0,0E0,0E0,0E0,0E0,0E0,0E0,0E0,0E0,0E0,0E0,0E0,0E0],"parents":[2147483647,0,0,1,1,2,2,3,3,4,4,5,5,6,6,7,7,8,8,9,9,10,10,11,11,12,12,13,13,14,14,15,15,16,16,17,17,18,18,19,19,20,20,21,21,22,22,23,23,24,24,25,25,26,26,27,27,28,28,29,29,30,30,31,31,32,32,33,33,34,34,35,35,36,36,37,37,38,38,39,39,40,40,41,41,42,42,43,43,44,44,45,45,46,46,47,47,48,48,49,49,50,50,51,51,52,52,53,53,54,54,55,55,56,56,57,57,58,58,59,59,60,60,61,61,62,62],"right_children":[2,4,6,8,10,12,14,16,18,20,22,24,26,28,30,32,34,36,38,40,42,44,46,48,50,52,54,56,58,60,62,64,66,68,70,72,74,76,78,80,82,84,86,88,90,92,94,96,98,100,102,104,106,108,110,112,114,116,118,120,122,124,126,-1,-1,-1,-1,-1,-1,-1,-1,-1,-1,-1,-1,-1,-1,-1,-1,-1,-1,-1,-1,-1,-1,-1,-1,-1,-1,-1,-1,-1,-1,-1,-1,-1,-1,-1,-1,-1,-1,-1,-1,-1,-1,-1,-1,-1,-1,-1,-1,-1,-1,-1,-1,-1,-1,-1,-1,-1,-1,-1,-1,-1,-1,-1,-1],"split_conditions":[2.3025851E0,1.03E2,3.295837E0,9.1E1,1.73E2,1.03E2,5.7460824E4,7E2,1.3862944E0,1.3862944E0,2.59E2,4.8197387E4,1.11E2,1.03E2,1.03E2,1.0986123E0,1.609438E0,5.8027133E4,1.02E2,1.72E2,1.11E2,2.53E2,1.609438E0,2.756E3,8.480736E4,1.9E1,3.01E2,3.7841897E0,3.9318256E0,8.480736E4,4.3820267E0,7.1E1,1.609438E0,1.0986123E0,1.7917595E0,2.3140002E4,-0E0,6.3724266E4,2.3140002E4,1.22E2,1.0986123E0,4.18E3,1.72E2,1.0986123E0,7.3687125E4,3.93E2,3.06E2,2.7725887E0,5.644172E-1,7.3E1,4.3388373E-1,6.9651586E4,4.6E1,4.8625264E-1,-0E0,3.6202918E4,1E0,4.279E3,4.5217886E0,1E0,1E0,3.8066626E0,8.480736E4,-1.2679406E-1,-9.895854E-2,-7.162898E-2,-2.5514359E-2,2.2356598E-2,7.072628E-2,9.196358E-2,1.1137626E-1,-4.5456942E-2,3.4772977E-2,-2.4481056E-2,5.7901163E-2,6.901302E-2,8.904522E-2,-6.4239256E-2,2.0868529E-2,-1.4682023E-1,-7.239013E-2,-2.2896357E-1,-1.800702E-1,-1.4339726E-1,-8.3098315E-2,-2.2668397E-2,-1.6567422E-1,-6.04673E-2,-2.693629E-2,8.7818235E-2,1.1079085E-1,-6.616226E-2,-2.8437773E-2,1.1190936E-2,-2.6509378E-2,1.8553877E-2,3.6766298E-2,3.7993725E-2,5.2026015E-2,1.6654751E-3,7.05458E-2,1.1665286E-1,8.967655E-2,-9.566434E-2,-4.4977143E-2,-1.152518E-2,-5.19395E-2,-2.8768485E-2,3.820389E-2,1.2691006E-1,2.5199773E-4,5.6278832E-2,7.0567235E-2,7.749803E-2,8.930018E-2,4.8872292E-2,5.7245847E-2,6.6120796E-2,8.063819E-2,8.620458E-2,1.0351776E-1,1.0371669E-1,1.2411437E-1,6.375107E-2,7.513835E-2,8.5346155E-2,9.872646E-2],"split_indices":[37,33,37,33,33,33,35,31,37,37,33,35,33,33,33,37,37,35,33,33,33,33,37,34,35,31,33,37,37,35,37,33,37,37,37,35,30,35,35,33,37,34,33,37,35,33,33,37,36,33,9,35,31,36,30,35,10,34,37,10,10,37,35,0,0,0,0,0,0,0,0,0,0,0,0,0,0,0,0,0,0,0,0,0,0,0,0,0,0,0,0,0,0,0,0,0,0,0,0,0,0,0,0,0,0,0,0,0,0,0,0,0,0,0,0,0,0,0,0,0,0,0,0,0,0,0,0],"split_type":[0,0,0,0,0,0,0,0,0,0,0,0,0,0,0,0,0,0,0,0,0,0,0,0,0,0,0,0,0,0,0,0,0,0,0,0,0,0,0,0,0,0,0,0,0,0,0,0,0,0,0,0,0,0,0,0,0,0,0,0,0,0,0,0,0,0,0,0,0,0,0,0,0,0,0,0,0,0,0,0,0,0,0,0,0,0,0,0,0,0,0,0,0,0,0,0,0,0,0,0,0,0,0,0,0,0,0,0,0,0,0,0,0,0,0,0,0,0,0,0,0,0,0,0,0,0,0],"sum_hessian":[5.06358E5,3.75047E5,1.31311E5,1.17358E5,2.57689E5,2.9771E4,1.0154E5,2.7376E4,8.9982E4,8.2771E4,1.74918E5,8.582E3,2.1189E4,4.476E4,5.678E4,2.6053E4,1.323E3,5.6704E4,3.3278E4,6.0839E4,2.1932E4,5.2649E4,1.22269E5,5.03E3,3.552E3,8.52E2,2.0337E4,2.1605E4,2.3155E4,2.8072E4,2.8708E4,1.7719E4,8.334E3,7.57E2,5.66E2,2.9674E4,2.703E4,3.2232E4,1.046E3,5.5537E4,5.302E3,5.965E3,1.5967E4,2.6264E4,2.6385E4,8.5168E4,3.7101E4,8.72E2,4.158E3,3.04E3,5.12E2,3.09E2,5.43E2,1.512E4,5.217E3,1.1392E4,1.0213E4,1.3454E4,9.701E3,1.9784E4,8.288E3,1.7422E4,1.1286E4,9.354E3,8.365E3,7.051E3,1.283E3,2.5E1,7.32E2,3.9E2,1.76E2,4.74E2,2.92E4,2E2,2.683E4,1.8534E4,1.3698E4,1.11E2,9.35E2,2.8902E4,2.6635E4,4.6E3,7.02E2,1.092E3,4.873E3,1.5722E4,2.45E2,1.882E4,7.444E3,1.8685E4,7.7E3,4.6424E4,3.8744E4,2.1097E4,1.6004E4,4.66E2,4.06E2,1.597E3,2.561E3,7.7E1,2.963E3,1.84E2,3.28E2,2.94E2,1.5E1,2.41E2,3.02E2,3.45E2,1.4775E4,2.5E2,4.967E3,2.902E3,8.49E3,7.048E3,3.165E3,6.993E3,6.461E3,8.143E3,1.558E3,1.5639E4,4.145E3,6.627E3,1.661E3,5.017E3,1.2405E4,6.809E3,4.477E3],"tree_param":{"num_deleted":"0","num_feature":"38","num_nodes":"127","size_leaf_vector":"1"}},{"base_weights":[7.353343E-4,7.949235E-1,-4.2159012E-1,-1.6889188E0,1.2580322E0,-2.541747E0,-1.5475035E-1,1.5582241E0,-1.8500667E0,9.790504E-1,1.4666224E0,-7.836103E-1,-3.010867E0,-1.594967E-2,-1.347615E0,1.3483478E0,1.7336946E0,-2.212502E0,-1.5267936E0,8.133439E-1,1.2142075E0,1.2923739E0,1.7375065E0,-8.872522E-1,-6.493274E-1,-3.0850344E0,-7.5826275E-1,-1.00554734E-1,2.4457397E0,-1.3267303E0,-2.3794832E0,-5.1541753E-2,1.3743274E0,1.6757488E0,1.05321445E-1,-1.8370885E0,-2.5377269E0,-1.2967004E0,-1.6706573E0,1.1190524E0,7.246838E-1,-2.6876718E-1,1.269722E0,1.6629455E0,1.235796E0,-3.3759162E-1,1.756859E0,-8.537922E-1,-1.6013229E0,-9.2676944E-1,-3.9133295E-1,-2.5245411E0,-3.3067605E0,-4.527586E-1,-2.342544E-1,8.7514594E-2,-1.0587667E0,2.279248E0,2.4933193E0,-1.4504328E0,-1.1620226E0,-1.3003717E-1,-2.0652015E0,7.2834216E-2,5.7470094E-2,1.0050124E-1,7.9665415E-2,-8.980181E-2,-1.2965904E-1,-1.1363121E-1,-1.3288224E-1,-8.5343264E-2,-6.0296524E-2,-8.660557E-2,-5.8389213E-2,5.1826973E-2,7.0135854E-2,1.686756E-2,3.885826E-2,-7.947737E-2,1.12067275E-2,4.880899E-2,6.983971E-2,9.792059E-2,7.935822E-2,5.5030055E-2,6.6437885E-2,1.4809559E-2,-2.465755E-2,8.277769E-2,1.0228081E-1,-2.0960776E-2,-4.4811856E-2,-8.170111E-2,-1.4114772E-2,-4.1946404E-2,-6.0796417E-2,-1.3004801E-2,-3.4748733E-2,-1.434478E-1,-4.0462647E-2,-1.7006539E-1,-8.2271E-2,1.881705E-2,-3.9746545E-2,-5.031046E-2,1.7022485E-2,-5.84279E-2,1.3545465E-1,1.0732205E-1,1.1823007E-1,1.2256487E-1,1.310967E-1,-7.6354794E-2,-6.1852645E-2,-6.2119402E-2,-4.7662716E-2,-1.0063767E-1,-1.2879162E-1],"categories":[],"categories_nodes":[],"categories_segments":[],"categories_sizes":[],"default_left":[0,0,0,0,0,0,0,0,0,0,0,0,0,0,0,0,0,0,0,0,0,0,0,0,0,0,0,0,0,0,0,0,0,0,0,0,0,0,0,0,0,0,0,0,0,0,0,0,0,0,0,0,0,0,0,0,0,0,0,0,0,0,0,0,0,0,0,0,0,0,0,0,0,0,0,0,0,0,0,0,0,0,0,0,0,0,0,0,0,0,0,0,0,0,0,0,0,0,0,0,0,0,0,0,0,0,0,0,0,0,0,0,0,0,0,0,0,0,0],"id":10,"left_children":[1,3,5,7,9,11,13,15,17,19,21,23,25,27,29,31,33,35,37,39,41,43,45,47,49,51,53,55,57,59,61,-1,63,65,-1,67,69,71,73,75,77,79,81,83,85,87,89,91,93,95,97,99,101,103,-1,105,107,109,111,113,115,-1,117,-1,-1,-1,-1,-1,-1,-1,-1,-1,-1,-1,-1,-1,-1,-1,-1,-1,-1,-1,-1,-1,-1,-1,-1,-1,-1,-1,-1,-1,-1,-1,-1,-1,-1,-1,-1,-1,-1,-1,-1,-1,-1,-1,-1,-1,-1,-1,-1,-1,-1,-1,-1,-1,-1,-1,-1],"loss_changes":[1.6961947E5,2.019514E5,1.8677916E5,1.44399375E4,8.609406E3,3.0437281E4,4.8552375E4,4.5413574E1,3.0760547E3,2.4657734E3,3.9938281E3,1.0747754E2,4.8645E3,5.4708746E4,6.5515625E2,3.8475464E1,1.1362061E1,1.5076484E3,4.575547E2,1.00570703E3,2.1547617E3,1.078E3,1.3315703E3,1.0315747E2,2.4222815E2,3.4961562E3,1.11305E3,4.5765133E4,6.298047E1,6.085039E2,3.623291E1,0E0,9.049927E0,1.3440308E1,0E0,1.7353516E2,2.0442969E2,1.9687012E2,2.6182227E2,1.9369531E2,5.849658E2,6.1570184E2,9.3928125E2,1.4928711E2,5.601719E2,3.0433147E1,9.5672656E2,7.6798096E1,7.75766E0,4.0252808E1,6.9818146E1,4.722883E3,3.16775E3,2.4545341E2,0E0,5.872787E4,1.7239309E4,1.6600586E1,2.9691406E1,2.7766016E2,2.1428906E2,0E0,1.1859131E0,0E0,0E0,0E0,0E0,0E0,0E0,0E0,0E0,0E0,0E0,0E0,0E0,0E0,0E0,0E0,0E0,0E0,0E0,0E0,0E0,0E0,0E0,0E0,0E0,0E0,0E0,0E0,0E0,0E0,0E0,0E0,0E0,0E0,0E0,0E0,0E0,0E0,0E0,0E0,0E0,0E0,0E0,0E0,0E0,0E0,0E0,0E0,0E0,0E0,0E0,0E0,0E0,0E0,0E0,0E0,0E0],"parents":[2147483647,0,0,1,1,2,2,3,3,4,4,5,5,6,6,7,7,8,8,9,9,10,10,11,11,12,12,13,13,14,14,15,15,16,16,17,17,18,18,19,19,20,20,21,21,22,22,23,23,24,24,25,25,26,26,27,27,28,28,29,29,30,30,32,32,33,33,35,35,36,36,37,37,38,38,39,39,40,40,41,41,42,42,43,43,44,44,45,45,46,46,47,47,48,48,49,49,50,50,51,51,52,52,53,53,55,55,56,56,57,57,58,58,59,59,60,60,62,62],"right_children":[2,4,6,8,10,12,14,16,18,20,22,24,26,28,30,32,34,36,38,40,42,44,46,48,50,52,54,56,58,60,62,-1,64,66,-1,68,70,72,74,76,78,80,82,84,86,88,90,92,94,96,98,100,102,104,-1,106,108,110,112,114,116,-1,118,-1,-1,-1,-1,-1,-1,-1,-1,-1,-1,-1,-1,-1,-1,-1,-1,-1,-1,-1,-1,-1,-1,-1,-1,-1,-1,-1,-1,-1,-1,-1,-1,-1,-1,-1,-1,-1,-1,-1,-1,-1,-1,-1,-1,-1,-1,-1,-1,-1,-1,-1,-1,-1,-1,-1,-1],"split_conditions":[1.03E2,1E2,1.23E2,3.7E1,5.3843156E4,1.04E2,4.57E2,1.4E5,7.1E1,1.02E2,1.02E2,5.9532977E4,2.504E3,4.56E2,2.504E3,1.15E2,2.1544327E5,7.4E1,-2.4492937E-16,-1.1729712E5,2.7942424E4,-2.4037544E5,-0E0,5.8027133E4,6.2E1,4.6E1,6E3,3.06E2,4.4231887E4,6.264415E4,5E3,-5.1541753E-2,1.3307013E4,-1.654452E5,1.05321445E-1,7E1,1.18E2,4.3890734E4,1E2,4E0,3.318579E4,2.3140002E4,3.7151168E4,-4.543213E5,6.616439E4,1E0,8.480736E4,2.9983188E4,1E0,1.4915439E5,7.147877E4,4E1,1.22E2,2.75E3,-2.342544E-1,1.68E2,7E2,1.0360208E4,1.780309E5,1.69E2,1.29E2,-1.3003717E-1,3.2400953E5,7.2834216E-2,5.7470094E-2,1.0050124E-1,7.9665415E-2,-8.980181E-2,-1.2965904E-1,-1.1363121E-1,-1.3288224E-1,-8.5343264E-2,-6.0296524E-2,-8.660557E-2,-5.8389213E-2,5.1826973E-2,7.0135854E-2,1.686756E-2,3.885826E-2,-7.947737E-2,1.12067275E-2,4.880899E-2,6.983971E-2,9.792059E-2,7.935822E-2,5.5030055E-2,6.6437885E-2,1.4809559E-2,-2.465755E-2,8.277769E-2,1.0228081E-1,-2.0960776E-2,-4.4811856E-2,-8.170111E-2,-1.4114772E-2,-4.1946404E-2,-6.0796417E-2,-1.3004801E-2,-3.4748733E-2,-1.434478E-1,-4.0462647E-2,-1.7006539E-1,-8.2271E-2,1.881705E-2,-3.9746545E-2,-5.031046E-2,1.7022485E-2,-5.84279E-2,1.3545465E-1,1.0732205E-1,1.1823007E-1,1.2256487E-1,1.310967E-1,-7.6354794E-2,-6.1852645E-2,-6.2119402E-2,-4.7662716E-2,-1.0063767E-1,-1.2879162E-1],"split_indices":[33,33,33,33,35,33,33,11,33,33,33,35,30,33,30,31,29,31,7,29,35,29,30,35,31,31,30,33,35,35,30,0,29,29,0,33,31,35,30,0,35,35,35,29,35,0,35,35,4,29,35,31,33,30,0,33,31,29,29,31,31,0,13,0,0,0,0,0,0,0,0,0,0,0,0,0,0,0,0,0,0,0,0,0,0,0,0,0,0,0,0,0,0,0,0,0,0,0,0,0,0,0,0,0,0,0,0,0,0,0,0,0,0,0,0,0,0,0,0],"split_type":[0,0,0,0,0,0,0,0,0,0,0,0,0,0,0,0,0,0,0,0,0,0,0,0,0,0,0,0,0,0,0,0,0,0,0,0,0,0,0,0,0,0,0,0,0,0,0,0,0,0,0,0,0,0,0,0,0,0,0,0,0,0,0,0,0,0,0,0,0,0,0,0,0,0,0,0,0,0,0,0,0,0,0,0,0,0,0,0,0,0,0,0,0,0,0,0,0,0,0,0,0,0,0,0,0,0,0,0,0,0,0,0,0,0,0,0,0,0,0],"sum_hessian":[5.05712E5,1.75563E5,3.30149E5,2.7589E4,1.47974E5,3.6906E4,2.93243E5,1.304E3,2.6285E4,6.3308E4,8.4666E4,7.774E3,2.9132E4,2.62679E5,3.0564E4,5.98E2,7.06E2,1.2389E4,1.3896E4,3.7141E4,2.6167E4,5.1527E4,3.3139E4,4.384E3,3.39E3,2.8203E4,9.29E2,2.53952E5,8.727E3,2.996E4,6.04E2,6E0,5.92E2,6.16E2,9E1,5.754E3,6.635E3,5.35E3,8.546E3,8.347E3,2.8794E4,9.44E2,2.5223E4,6.821E3,4.4706E4,3.06E2,3.2833E4,4.19E3,1.94E2,1.632E3,1.758E3,7.998E3,2.0205E4,8.63E2,6.6E1,2.12287E5,4.1665E4,1.951E3,6.776E3,1.7105E4,1.2855E4,3.5E2,2.54E2,4.29E2,1.63E2,1.17E2,4.99E2,5.461E3,2.93E2,2.073E3,4.562E3,9.66E2,4.384E3,7.613E3,9.33E2,6.47E3,1.877E3,3.437E3,2.5357E4,2.56E2,6.88E2,7.623E3,1.76E4,1.387E3,5.434E3,1.8221E4,2.6485E4,6E1,2.46E2,2.4311E4,8.522E3,3.74E2,3.816E3,1.89E2,5E0,1.255E3,3.77E2,1.229E3,5.29E2,6.66E3,1.338E3,1.9116E4,1.089E3,2.52E2,6.11E2,3.9872E4,1.72415E5,4.0486E4,1.179E3,7.74E2,1.177E3,5.123E3,1.653E3,1.2579E4,4.526E3,9.278E3,3.577E3,2.35E2,1.9E1],"tree_param":{"num_deleted":"0","num_feature":"38","num_nodes":"119","size_leaf_vector":"1"}},{"base_weights":[1.0648669E-3,-4.514646E-1,1.2181796E0,4.0363887E-1,-8.4053445E-1,5.850338E-1,1.428401E0,-1.6258564E0,1.0295857E0,-1.8367331E0,-3.5760033E-1,1.0323757E0,4.3664864E-1,1.2393868E0,1.6063129E0,1.4301153E0,-1.7773566E0,8.167148E-1,1.4072441E0,-2.4442403E0,-1.1567243E0,3.9988193E-1,-6.9349086E-1,1.7756546E0,9.4541365E-1,-9.422499E-1,5.012198E-1,1.3680143E0,1.0785216E0,1.7624617E0,1.4899035E0,1.2241507E0,1.7244065E0,-2.0574193E0,-1.1681381E0,6.4935565E-1,9.1332555E-1,1.2671537E0,1.601049E0,-2.216739E0,-4.3647156E0,-1.8376671E0,-7.582122E-1,-9.931019E-1,1.777264E0,-4.8487657E-1,-1.3455684E0,8.846788E-1,2.1538835E0,8.157064E-1,1.2992784E0,-1.3887513E0,-4.2063016E-1,6.4614505E-1,1.1689371E-1,1.2456346E0,1.4568024E0,9.928613E-1,1.1739488E0,1.6633129E0,1.9306918E0,1.3728524E0,1.7050359E0,-5.0819468E-2,6.2324565E-2,8.2727514E-2,9.628947E-2,-1.1480309E-1,-8.9341804E-2,-6.454533E-2,-2.2450853E-2,3.167731E-2,8.835893E-2,4.3359432E-2,5.7055503E-2,6.031189E-2,7.304584E-2,7.5001724E-2,8.7319896E-2,-1.4090872E-1,-7.406322E-2,-2.0456195E-1,-2.2332552E-1,-4.8351353E-3,-1.095407E-1,-3.2772616E-2,-1.6704036E-1,-5.867308E-2,-2.6507333E-2,1.0051558E-1,8.064243E-2,-3.933504E-2,1.1633103E-1,-8.747428E-2,-4.640238E-2,1.1574652E-1,2.2471735E-2,1.0436455E-1,1.1757479E-1,2.2560237E-2,4.4336196E-2,6.1896235E-2,9.112885E-2,-1.3917218E-2,-7.801565E-2,-1.7224084E-1,-1.7193835E-2,-3.317718E-2,3.3688184E-2,1.24899864E-1,6.23229E-4,6.1627824E-2,1.03861764E-1,8.103391E-2,7.133517E-2,5.0522726E-2,2.3453344E-2,2.3855148E-2,5.8965977E-2,9.0211816E-2,8.096594E-2,9.273764E-2,1.03953116E-1,6.4957954E-2,7.269702E-2,8.164253E-2,9.6561834E-2],"categories":[],"categories_nodes":[],"categories_segments":[],"categories_sizes":[],"default_left":[0,0,0,0,0,0,0,0,0,0,0,0,0,0,0,0,0,0,0,0,0,0,0,0,0,0,0,0,0,0,0,0,0,0,0,0,0,0,0,0,0,0,0,0,0,0,0,0,0,0,0,0,0,0,0,0,0,0,0,0,0,0,0,0,0,0,0,0,0,0,0,0,0,0,0,0,0,0,0,0,0,0,0,0,0,0,0,0,0,0,0,0,0,0,0,0,0,0,0,0,0,0,0,0,0,0,0,0,0,0,0,0,0,0,0,0,0,0,0,0,0,0,0,0,0,0,0],"id":11,"left_children":[1,3,5,7,9,11,13,15,17,19,21,23,25,27,29,31,33,35,37,39,41,43,45,47,49,51,53,55,57,59,61,63,65,67,69,71,73,75,77,79,81,83,85,87,89,91,93,95,97,99,101,103,105,107,109,111,113,115,117,119,121,123,125,-1,-1,-1,-1,-1,-1,-1,-1,-1,-1,-1,-1,-1,-1,-1,-1,-1,-1,-1,-1,-1,-1,-1,-1,-1,-1,-1,-1,-1,-1,-1,-1,-1,-1,-1,-1,-1,-1,-1,-1,-1,-1,-1,-1,-1,-1,-1,-1,-1,-1,-1,-1,-1,-1,-1,-1,-1,-1,-1,-1,-1,-1,-1,-1],"loss_changes":[2.785181E5,1.226394E5,1.8241234E4,1.4644066E5,1.2188541E5,2.2672363E3,3.4577656E3,1.2583148E4,7.0813594E3,3.4168438E4,4.3414656E4,5.480469E2,2.284852E3,1.0306719E3,9.604219E2,7.542212E1,4.4146094E3,9.1029297E2,8.598906E2,1.9077016E4,1.0590223E4,1.0057858E5,1.6080125E4,2.9771436E2,3.4847754E2,2.6660858E2,1.36502E3,2.991328E2,1.7987305E2,3.7389844E2,7.621172E2,3.928174E1,3.8554688E0,1.1406797E3,7.1930176E2,3.6314648E2,3.742129E2,2.1559961E2,1.92625E2,1.7274078E4,1.09640625E2,8.858449E3,6.5323057E3,2.1754277E3,1.00634375E3,7.600287E4,4.83009E3,1.6489294E2,2.8591309E0,1.4388379E2,6.2998535E1,1.1711279E2,1.2169055E2,6.442324E2,1.6689492E3,1.23953125E2,7.659375E1,1.0712305E2,3.850586E1,8.505469E1,9.022656E1,1.1540234E2,1.711543E2,0E0,0E0,0E0,0E0,0E0,0E0,0E0,0E0,0E0,0E0,0E0,0E0,0E0,0E0,0E0,0E0,0E0,0E0,0E0,0E0,0E0,0E0,0E0,0E0,0E0,0E0,0E0,0E0,0E0,0E0,0E0,0E0,0E0,0E0,0E0,0E0,0E0,0E0,0E0,0E0,0E0,0E0,0E0,0E0,0E0,0E0,0E0,0E0,0E0,0E0,0E0,0E0,0E0,0E0,0E0,0E0,0E0,0E0,0E0,0E0,0E0,0E0,0E0,0E0],"parents":[2147483647,0,0,1,1,2,2,3,3,4,4,5,5,6,6,7,7,8,8,9,9,10,10,11,11,12,12,13,13,14,14,15,15,16,16,17,17,18,18,19,19,20,20,21,21,22,22,23,23,24,24,25,25,26,26,27,27,28,28,29,29,30,30,31,31,32,32,33,33,34,34,35,35,36,36,37,37,38,38,39,39,40,40,41,41,42,42,43,43,44,44,45,45,46,46,47,47,48,48,49,49,50,50,51,51,52,52,53,53,54,54,55,55,56,56,57,57,58,58,59,59,60,60,61,61,62,62],"right_children":[2,4,6,8,10,12,14,16,18,20,22,24,26,28,30,32,34,36,38,40,42,44,46,48,50,52,54,56,58,60,62,64,66,68,70,72,74,76,78,80,82,84,86,88,90,92,94,96,98,100,102,104,106,108,110,112,114,116,118,120,122,124,126,-1,-1,-1,-1,-1,-1,-1,-1,-1,-1,-1,-1,-1,-1,-1,-1,-1,-1,-1,-1,-1,-1,-1,-1,-1,-1,-1,-1,-1,-1,-1,-1,-1,-1,-1,-1,-1,-1,-1,-1,-1,-1,-1,-1,-1,-1,-1,-1,-1,-1,-1,-1,-1,-1,-1,-1,-1,-1,-1,-1,-1,-1,-1,-1],"split_conditions":[2.1972246E0,1.02E2,3.2580965E0,1E2,1.73E2,1.03E2,3.9512436E0,3.7E1,1.3862944E0,1.0986123E0,2.59E2,1.02E2,1.11E2,1.03E2,1.03E2,1.3862944E0,1.0986123E0,4.148E3,1.609438E0,1.72E2,1.11E2,2.53E2,4.57E2,7.3E1,6.340766E-1,5.363E3,3.01E2,3.637586E0,3.6888795E0,4.248495E0,4.4886365E0,1.382E4,1.7917595E0,7E1,1.609438E0,1.016E3,5.111E3,4.827E3,1.7917595E0,1.22E2,4.163E3,1.04E2,1.72E2,1.0986123E0,2.54E2,4.56E2,1.0986123E0,3.1E1,2.3978953E0,2.756E3,7.065574E-1,5.463374E-1,5.2740675E-1,4.8625264E-1,-0E0,6.8899846E-1,1E0,3.01E2,1.68E2,1E0,4.454347E0,4.204693E0,4.9767337E0,-5.0819468E-2,6.2324565E-2,8.2727514E-2,9.628947E-2,-1.1480309E-1,-8.9341804E-2,-6.454533E-2,-2.2450853E-2,3.167731E-2,8.835893E-2,4.3359432E-2,5.7055503E-2,6.031189E-2,7.304584E-2,7.5001724E-2,8.7319896E-2,-1.4090872E-1,-7.406322E-2,-2.0456195E-1,-2.2332552E-1,-4.8351353E-3,-1.095407E-1,-3.2772616E-2,-1.6704036E-1,-5.867308E-2,-2.6507333E-2,1.0051558E-1,8.064243E-2,-3.933504E-2,1.1633103E-1,-8.747428E-2,-4.640238E-2,1.1574652E-1,2.2471735E-2,1.0436455E-1,1.1757479E-1,2.2560237E-2,4.4336196E-2,6.1896235E-2,9.112885E-2,-1.3917218E-2,-7.801565E-2,-1.7224084E-1,-1.7193835E-2,-3.317718E-2,3.3688184E-2,1.24899864E-1,6.23229E-4,6.1627824E-2,1.03861764E-1,8.103391E-2,7.133517E-2,5.0522726E-2,2.3453344E-2,2.3855148E-2,5.8965977E-2,9.0211816E-2,8.096594E-2,9.273764E-2,1.03953116E-1,6.4957954E-2,7.269702E-2,8.164253E-2,9.6561834E-2],"split_indices":[37,33,37,33,33,33,37,33,37,37,33,33,33,33,33,37,37,34,37,33,33,33,33,33,36,34,33,37,37,37,37,11,37,33,37,30,34,34,37,33,34,33,33,37,33,33,37,33,37,34,36,36,36,36,30,36,0,33,33,0,37,37,37,0,0,0,0,0,0,0,0,0,0,0,0,0,0,0,0,0,0,0,0,0,0,0,0,0,0,0,0,0,0,0,0,0,0,0,0,0,0,0,0,0,0,0,0,0,0,0,0,0,0,0,0,0,0,0,0,0,0,0,0,0,0,0,0],"split_type":[0,0,0,0,0,0,0,0,0,0,0,0,0,0,0,0,0,0,0,0,0,0,0,0,0,0,0,0,0,0,0,0,0,0,0,0,0,0,0,0,0,0,0,0,0,0,0,0,0,0,0,0,0,0,0,0,0,0,0,0,0,0,0,0,0,0,0,0,0,0,0,0,0,0,0,0,0,0,0,0,0,0,0,0,0,0,0,0,0,0,0,0,0,0,0,0,0,0,0,0,0,0,0,0,0,0,0,0,0,0,0,0,0,0,0,0,0,0,0,0,0,0,0,0,0,0,0],"sum_hessian":[5.05677E5,3.68622E5,1.37055E5,1.15273E5,2.53349E5,3.4164E4,1.02891E5,2.7172E4,8.8101E4,8.2717E4,1.70632E5,8.508E3,2.5656E4,4.9893E4,5.2998E4,1.283E3,2.5889E4,5.6345E4,3.1756E4,4.3686E4,3.9031E4,5.2419E4,1.18213E5,8.89E2,7.619E3,1.147E3,2.4509E4,2.772E4,2.2173E4,2.2629E4,3.0369E4,7.58E2,5.25E2,1.7734E4,8.155E3,2.0625E4,3.572E4,1.8437E4,1.3319E4,3.9061E4,4.625E3,1.4408E4,2.4623E4,2.6062E4,2.6357E4,8.9562E4,2.8651E4,2.66E2,6.23E2,5.578E3,2.041E3,6.17E2,5.3E2,1.7797E4,6.712E3,1.1662E4,1.6058E4,1.1691E4,1.0482E4,1.4245E4,8.384E3,1.9673E4,1.0696E4,7E0,7.51E2,3.97E2,1.28E2,9.419E3,8.315E3,6.965E3,1.19E3,2.0339E4,2.86E2,2.9708E4,6.012E3,1.4033E4,4.404E3,7.865E3,5.454E3,2.1487E4,1.7574E4,1.266E3,3.359E3,2.43E3,1.1978E4,2.3682E4,9.41E2,1.8754E4,7.308E3,1.0898E4,1.5459E4,8.088E4,8.682E3,1.4561E4,1.409E4,6.1E1,2.05E2,4.75E2,1.48E2,9.11E2,4.667E3,1.83E3,2.11E2,8.3E1,5.34E2,1.2E1,5.18E2,3.67E2,1.743E4,2.81E2,6.431E3,1.1484E4,1.78E2,2.483E3,1.3575E4,1.131E4,3.81E2,8.1E1,1.0401E4,3.379E3,1.0866E4,5.555E3,2.829E3,1.0316E4,9.357E3,8.115E3,2.581E3],"tree_param":{"num_deleted":"0","num_feature":"38","num_nodes":"127","size_leaf_vector":"1"}},{"base_weights":[-4.943856E-4,-4.306847E-1,1.1566855E0,3.7848175E-1,-7.986311E-1,5.702396E-1,1.3620845E0,-1.5400068E0,9.7511435E-1,-1.7466999E0,-3.393236E-1,9.877124E-1,4.2372605E-1,1.1520898E0,1.5280552E0,1.35075E0,-1.6851443E0,7.729341E-1,1.3356695E0,-2.3250651E0,-1.099694E0,3.7691864E-1,-6.5829664E-1,7.253849E-1,1.3228741E0,-8.6826074E-1,4.833615E-1,1.0206889E0,1.2591538E0,1.4418331E0,1.7352102E0,1.1561457E0,1.6567115E0,-1.948584E0,-1.1183704E0,5.8536434E-1,1.0079857E0,1.1829064E0,1.5447718E0,-7.7219766E-1,-2.600298E0,-1.7472812E0,-7.2356373E-1,-9.423811E-1,1.6851737E0,-9.6873295E-1,-2.2810028E-1,4.2193487E-1,7.9002905E-1,1.2214522E0,1.790819E0,-2.1066763E-1,-1.1949621E0,6.1800176E-1,1.1541006E-1,1.1345507E0,8.91674E-1,1.381561E0,1.1613501E0,1.333725E0,1.5411438E0,1.0871478E0,1.7677754E0,2.363361E-3,6.0098913E-2,7.751641E-2,8.9060575E-2,-1.0819649E-1,-8.509635E-2,-7.504835E-2,-4.4688113E-2,4.1373234E-2,2.5842706E-2,4.199655E-2,5.718563E-2,7.4987814E-2,5.5572875E-2,9.307482E-2,7.415164E-2,-3.9536577E-2,9.513396E-3,-1.7643408E-1,-9.897366E-2,-5.47845E-3,-1.03867844E-1,-3.124987E-2,-1.6075268E-1,-5.5704873E-2,-2.5187522E-2,7.793038E-2,9.957735E-2,-7.335489E-2,-2.4220522E-2,1.7106247E-1,-1.3040264E-2,1.3721096E-2,3.0808235E-2,3.178923E-2,4.425327E-2,-1.0716175E-1,6.1510723E-2,1.0188176E-1,8.057308E-2,-2.8984416E-2,6.483578E-3,-3.3904027E-2,-7.8089684E-2,-2.921479E-2,3.2184854E-2,1.1881905E-1,7.082666E-4,4.785676E-2,5.987611E-2,4.486039E-2,-4.3569643E-2,7.682244E-2,6.5761626E-2,5.5258203E-2,6.776739E-2,7.183229E-2,5.90521E-2,8.46672E-2,7.191005E-2,4.243015E-2,7.483412E-2,8.14953E-2,9.259787E-2],"categories":[],"categories_nodes":[],"categories_segments":[],"categories_sizes":[],"default_left":[0,0,0,0,0,0,0,0,0,0,0,0,0,0,0,0,0,0,0,0,0,0,0,0,0,0,0,0,0,0,0,0,0,0,0,0,0,0,0,0,0,0,0,0,0,0,0,0,0,0,0,0,0,0,0,0,0,0,0,0,0,0,0,0,0,0,0,0,0,0,0,0,0,0,0,0,0,0,0,0,0,0,0,0,0,0,0,0,0,0,0,0,0,0,0,0,0,0,0,0,0,0,0,0,0,0,0,0,0,0,0,0,0,0,0,0,0,0,0,0,0,0,0,0,0,0,0],"id":12,"left_children":[1,3,5,7,9,11,13,15,17,19,21,23,25,27,29,31,33,35,37,39,41,43,45,47,49,51,53,55,57,59,61,63,65,67,69,71,73,75,77,79,81,83,85,87,89,91,93,95,97,99,101,103,105,107,109,111,113,115,117,119,121,123,125,-1,-1,-1,-1,-1,-1,-1,-1,-1,-1,-1,-1,-1,-1,-1,-1,-1,-1,-1,-1,-1,-1,-1,-1,-1,-1,-1,-1,-1,-1,-1,-1,-1,-1,-1,-1,-1,-1,-1,-1,-1,-1,-1,-1,-1,-1,-1,-1,-1,-1,-1,-1,-1,-1,-1,-1,-1,-1,-1,-1,-1,-1,-1,-1],"loss_changes":[2.518592E5,1.09810266E5,1.6515031E4,1.31965E5,1.10402766E5,2.1749717E3,3.5371406E3,1.1476773E4,6.4094062E3,3.096E4,3.9020207E4,8.1114844E2,2.029061E3,6.291992E2,1.0101875E3,7.568359E1,3.8858672E3,2.4835586E3,1.00710547E3,1.866989E4,9.511637E3,9.083312E4,1.5780961E4,1.01255615E2,1.8996045E2,2.492478E2,1.2467549E3,2.9455078E2,2.9383594E2,4.276797E2,3.4945703E2,4.0628784E1,3.6072998E0,9.401797E2,7.0875195E2,5.1928613E2,5.6924023E2,4.1147656E2,2.5764258E2,1.1756787E2,2.1381312E4,7.756176E3,6.065325E3,1.9728887E3,1.0211719E3,1.65662E4,5.912316E3,2.5900589E1,6.1922607E1,1.0089844E2,2.8224854E1,4.8724354E1,1.4585315E2,5.69624E2,1.5435056E3,1.18078125E2,9.292383E1,1.1033008E2,1.4797656E2,2.9952344E2,3.2422656E2,7.664929E1,1.807539E2,0E0,0E0,0E0,0E0,0E0,0E0,0E0,0E0,0E0,0E0,0E0,0E0,0E0,0E0,0E0,0E0,0E0,0E0,0E0,0E0,0E0,0E0,0E0,0E0,0E0,0E0,0E0,0E0,0E0,0E0,0E0,0E0,0E0,0E0,0E0,0E0,0E0,0E0,0E0,0E0,0E0,0E0,0E0,0E0,0E0,0E0,0E0,0E0,0E0,0E0,0E0,0E0,0E0,0E0,0E0,0E0,0E0,0E0,0E0,0E0,0E0,0E0,0E0,0E0],"parents":[2147483647,0,0,1,1,2,2,3,3,4,4,5,5,6,6,7,7,8,8,9,9,10,10,11,11,12,12,13,13,14,14,15,15,16,16,17,17,18,18,19,19,20,20,21,21,22,22,23,23,24,24,25,25,26,26,27,27,28,28,29,29,30,30,31,31,32,32,33,33,34,34,35,35,36,36,37,37,38,38,39,39,40,40,41,41,42,42,43,43,44,44,45,45,46,46,47,47,48,48,49,49,50,50,51,51,52,52,53,53,54,54,55,55,56,56,57,57,58,58,59,59,60,60,61,61,62,62],"right_children":[2,4,6,8,10,12,14,16,18,20,22,24,26,28,30,32,34,36,38,40,42,44,46,48,50,52,54,56,58,60,62,64,66,68,70,72,74,76,78,80,82,84,86,88,90,92,94,96,98,100,102,104,106,108,110,112,114,116,118,120,122,124,126,-1,-1,-1,-1,-1,-1,-1,-1,-1,-1,-1,-1,-1,-1,-1,-1,-1,-1,-1,-1,-1,-1,-1,-1,-1,-1,-1,-1,-1,-1,-1,-1,-1,-1,-1,-1,-1,-1,-1,-1,-1,-1,-1,-1,-1,-1,-1,-1,-1,-1,-1,-1,-1,-1,-1,-1,-1,-1,-1,-1,-1,-1,-1,-1],"split_conditions":[2.1972246E0,1.02E2,3.295837E0,1E2,1.73E2,1.03E2,5.7460824E4,3.7E1,1.3862944E0,1.0986123E0,2.59E2,4.6647023E4,1.11E2,3.7612002E0,8.480736E4,1.609438E0,1.0986123E0,6.009498E4,6.3724266E4,1.04E2,1.11E2,2.53E2,1.3862944E0,2.756E3,7.8684836E4,5.4714835E-1,3.01E2,1.03E2,1.03E2,4.060443E0,4.6540028E-1,1.0986123E0,2.007E5,7.1E1,7.1E1,-1.1534429E5,1.0986123E0,-1.715045E5,-2.4037544E5,6.8122274E-1,1.11E2,1.04E2,1.72E2,1.0986123E0,7.3687125E4,3.93E2,4.6540028E-1,2.7725887E0,5.644172E-1,7.1E1,4.3388373E-1,5.350379E-1,5.089493E4,4.8625264E-1,4.6540028E-1,3.6202918E4,4.56E2,1E0,4.3307333E0,1.03E2,1.03E2,4.3307333E0,4.1271343E0,2.363361E-3,6.0098913E-2,7.751641E-2,8.9060575E-2,-1.0819649E-1,-8.509635E-2,-7.504835E-2,-4.4688113E-2,4.1373234E-2,2.5842706E-2,4.199655E-2,5.718563E-2,7.4987814E-2,5.5572875E-2,9.307482E-2,7.415164E-2,-3.9536577E-2,9.513396E-3,-1.7643408E-1,-9.897366E-2,-5.47845E-3,-1.03867844E-1,-3.124987E-2,-1.6075268E-1,-5.5704873E-2,-2.5187522E-2,7.793038E-2,9.957735E-2,-7.335489E-2,-2.4220522E-2,1.7106247E-1,-1.3040264E-2,1.3721096E-2,3.0808235E-2,3.178923E-2,4.425327E-2,-1.0716175E-1,6.1510723E-2,1.0188176E-1,8.057308E-2,-2.8984416E-2,6.483578E-3,-3.3904027E-2,-7.8089684E-2,-2.921479E-2,3.2184854E-2,1.1881905E-1,7.082666E-4,4.785676E-2,5.987611E-2,4.486039E-2,-4.3569643E-2,7.682244E-2,6.5761626E-2,5.5258203E-2,6.776739E-2,7.183229E-2,5.90521E-2,8.46672E-2,7.191005E-2,4.243015E-2,7.483412E-2,8.14953E-2,9.259787E-2],"split_indices":[37,33,37,33,33,33,35,33,37,37,33,35,33,37,35,37,37,35,35,33,33,33,37,34,35,36,33,33,33,37,36,37,11,33,33,29,37,29,29,36,33,33,33,37,35,33,36,37,36,33,9,36,35,36,36,35,33,0,37,33,33,37,37,0,0,0,0,0,0,0,0,0,0,0,0,0,0,0,0,0,0,0,0,0,0,0,0,0,0,0,0,0,0,0,0,0,0,0,0,0,0,0,0,0,0,0,0,0,0,0,0,0,0,0,0,0,0,0,0,0,0,0,0,0,0,0,0],"split_type":[0,0,0,0,0,0,0,0,0,0,0,0,0,0,0,0,0,0,0,0,0,0,0,0,0,0,0,0,0,0,0,0,0,0,0,0,0,0,0,0,0,0,0,0,0,0,0,0,0,0,0,0,0,0,0,0,0,0,0,0,0,0,0,0,0,0,0,0,0,0,0,0,0,0,0,0,0,0,0,0,0,0,0,0,0,0,0,0,0,0,0,0,0,0,0,0,0,0,0,0,0,0,0,0,0,0,0,0,0,0,0,0,0,0,0,0,0,0,0,0,0,0,0,0,0,0,0],"sum_hessian":[5.05935E5,3.68823E5,1.37112E5,1.15288E5,2.53535E5,3.5567E4,1.01545E5,2.7348E4,8.794E4,8.2742E4,1.70793E5,9.238E3,2.6329E4,4.4831E4,5.6714E4,1.307E3,2.6041E4,5.6347E4,3.1593E4,4.3687E4,3.9055E4,5.2625E4,1.18168E5,5.184E3,4.054E3,1.161E3,2.5168E4,2.0133E4,2.4698E4,4.0052E4,1.6662E4,8.02E2,5.05E2,1.7776E4,8.265E3,3.1341E4,2.5006E4,1.826E4,1.3333E4,6.578E3,3.7109E4,1.4348E4,2.4707E4,2.6202E4,2.6423E4,6.8637E4,4.9531E4,9.12E2,4.272E3,3.335E3,7.19E2,3.86E2,7.75E2,1.8425E4,6.743E3,1.069E4,9.443E3,1.0963E4,1.3735E4,1.9184E4,2.0868E4,7.99E2,1.5863E4,3.2E1,7.7E2,2.8E2,2.25E2,9.486E3,8.29E3,3.055E3,5.21E3,6.91E3,2.4431E4,1.1176E4,1.383E4,3.356E3,1.4904E4,2.17E3,1.1163E4,6.454E3,1.24E2,1.4869E4,2.224E4,2.407E3,1.1941E4,2.3768E4,9.39E2,1.8829E4,7.373E3,1.8703E4,7.72E3,3.3827E4,3.481E4,4.39E2,4.9092E4,5.2E2,3.92E2,1.632E3,2.64E3,8E0,3.327E3,2.98E2,4.21E2,1.85E2,2.01E2,3.23E2,4.52E2,3.85E2,1.804E4,2.88E2,6.455E3,2.805E3,7.885E3,9.414E3,2.9E1,3.28E3,7.683E3,1.0656E4,3.079E3,1.1454E4,7.73E3,8.413E3,1.2455E4,5.07E2,2.92E2,6.022E3,9.841E3],"tree_param":{"num_deleted":"0","num_feature":"38","num_nodes":"127","size_leaf_vector":"1"}},{"base_weights":[6.6461647E-4,-4.236381E-1,1.0602852E0,3.5325763E-1,-7.854089E-1,4.9782836E-1,1.288466E0,-1.4666638E0,9.213441E-1,-1.696934E0,-3.4147367E-1,9.7694016E-1,3.5783345E-1,1.1034051E0,1.4393668E0,-1.6019812E0,1.2916164E0,7.340903E-1,1.2608088E0,-1.5369477E0,-3.8616838E0,3.5758907E-1,-6.6515994E-1,1.605435E0,8.43744E-1,-8.5036695E-1,4.1715598E-1,1.2198864E0,9.5793474E-1,1.5774896E0,1.3326036E0,-1.8597033E0,-1.0427638E0,1.1100107E0,1.5528139E0,9.2215896E-1,6.207152E-1,1.6244155E0,1.1971905E0,-2.2197356E0,-9.343209E-1,-4.038145E0,-3.0268118E0,-8.9381576E-1,1.6023207E0,-4.6444416E-1,-1.2764643E0,6.632353E-1,1.8717365E0,7.924882E-1,1.2842647E0,-1.5240211E0,-4.9560472E-1,5.5057365E-1,7.5483434E-2,1.1088401E0,1.297558E0,9.701239E-1,4.0975416E-1,1.4879094E0,1.7519249E0,1.2284584E0,1.5397663E0,-1.0337261E-1,-8.117997E-2,-6.850543E-2,-4.2546958E-2,4.5837317E-2,6.1944235E-2,